<?xml version="1.0"?>
<opencv_storage>
<opencv_ml_svm>
  <format>3</format>
  <svmType>C_SVC</svmType>
  <kernel>
    <type>LINEAR</type></kernel>
  <C>1.</C>
  <term_criteria><epsilon>1.1920928955078125e-07</epsilon>
    <iterations>1000</iterations></term_criteria>
  <var_count>210</var_count>
  <class_count>4</class_count>
  <class_labels type_id="opencv-matrix">
    <rows>4</rows>
    <cols>1</cols>
    <dt>i</dt>
    <data>
      0 1 2 3</data></class_labels>
  <sv_total>6</sv_total>
  <support_vectors>
    <_>
      -7.16663578e-07 3.17056077e-07 2.79993571e-07 -5.17129081e-07
      -6.32919466e-07 -9.49007756e-07 -1.73005162e-07 7.23942776e-07
      2.09076788e-07 7.32137096e-07 -4.19028879e-07 -6.22503421e-07
      -1.27251468e-07 2.50543593e-07 4.55323431e-07 -3.93889110e-07
      9.69824782e-07 5.05376008e-08 1.51842968e-07 5.78033223e-07
      -4.40863062e-07 -3.37310189e-06 1.89543073e-07 -2.66609254e-06
      -1.81736652e-06 -4.60830734e-07 -5.51826531e-07 8.53202550e-07
      5.93227412e-07 5.28366672e-06 -9.72936732e-07 -1.03247316e-06
      1.58255909e-06 -3.06577590e-06 -3.21074054e-07 -1.25344991e-06
      2.69645398e-07 3.16235310e-06 -4.81585573e-07 -9.11528630e-08
      -1.30838441e-06 -7.98010262e-07 -3.06830248e-06 -7.34681805e-07
      1.42375052e-06 2.04250881e-07 -3.22176811e-06 -1.52215796e-06
      -6.67512040e-07 1.73023935e-07 -9.12111318e-07 -2.85790207e-07
      -1.49513050e-06 2.47036064e-06 -1.22348570e-06 -3.44628205e-07
      -4.68649631e-07 2.98152685e-07 -3.69039611e-07 1.14371879e-07
      -3.18695328e-07 4.90096674e-08 -4.51874484e-08 4.79828763e-08
      1.30002297e-06 -4.86942842e-09 -6.43297881e-07 6.96923109e-07
      -7.97790847e-07 4.33365159e-07 -1.87567579e-07 5.94603819e-07
      7.18953286e-10 5.60564672e-07 -1.51953259e-06 -1.93100823e-06
      -2.18455256e-07 1.14595844e-06 6.56048314e-07 -1.92478888e-06
      -3.09983164e-07 -1.11612655e-06 -9.48889351e-07 -3.64258000e-07
      -3.08223719e-07 -6.95779875e-07 1.66861901e-06 -6.20013680e-07
      -3.74770963e-07 9.59355475e-07 -2.38487951e-06 -6.43257806e-07
      4.78904667e-07 7.76904017e-07 -1.03553930e-06 3.33868570e-06
      -1.10774533e-06 -1.81246492e-06 9.05356558e-07 -2.67643213e-06
      -5.72478541e-07 1.00910563e-06 1.04778519e-06 5.75853278e-07
      1.41169903e-06 -5.54964117e-07 5.40743997e-07 -1.85549155e-07
      -7.33589332e-07 2.17002434e-08 9.68139133e-08 -1.75909577e-07
      3.50405088e-07 -3.77334800e-07 3.26287664e-10 5.59932914e-07
      2.70162896e-08 -1.70585210e-07 6.31266630e-08 -2.91201285e-08
      -4.75611763e-08 -4.86053011e-07 -2.35607445e-06 7.49968081e-07
      1.38589996e-07 -7.73707768e-07 9.62457534e-07 -4.82821649e-09
      2.71764605e-07 -1.49641807e-07 -1.18272237e-06 1.40786071e-07
      -5.00357828e-07 2.62939807e-07 -5.35531001e-07 6.70372174e-07
      4.12090913e-07 2.52739341e-07 3.64268374e-07 4.73073015e-07
      -4.07047764e-07 2.01575467e-08 -1.96055353e-07 -4.23695042e-07
      1.01095782e-06 4.47281263e-06 2.03740917e-08 -6.52326833e-07
      2.10350913e-06 -2.64261939e-06 3.02842778e-07 -1.72237117e-06
      3.24021443e-07 2.97704628e-06 -9.45813383e-07 5.68143287e-06
      -1.92243146e-08 8.31555894e-07 1.89531670e-06 -1.12497889e-06
      1.62893070e-06 -4.32878960e-06 9.48242985e-07 3.16090268e-06
      -1.50085430e-06 -5.88756166e-07 -1.28397562e-06 3.72793437e-07
      -2.08953722e-07 -1.71498726e-07 9.39780364e-07 3.18985826e-07
      -2.49852974e-07 1.53185147e-06 5.61740478e-07 -6.80316475e-07
      -4.36741857e-07 -1.32246566e-06 8.65059690e-07 -6.87085560e-07
      1.05447941e-06 -7.39800271e-07 1.17830496e-06 -6.88512614e-07
      7.58069916e-07 -1.62647996e-06 8.40321377e-07 1.05494519e-06
      3.48617874e-07 -7.66100186e-07 -1.26810153e-06 2.12545683e-06
      -2.74305052e-07 -7.04680701e-07 2.37527402e-07 1.14095663e-07
      6.10557720e-08 1.04810817e-06 7.87395962e-08 1.24943335e-06
      5.32975548e-07 -1.22736890e-06 -1.93604160e-06 -5.00312808e-07
      -7.15514403e-08 3.45163926e-07 2.47947696e-07 2.67715313e-06
      -1.55197222e-06 6.13072416e-07</_>
    <_>
      -4.43903218e-06 2.31565195e-06 -4.56586150e-07 -7.12674307e-07
      -3.35581694e-06 8.98331052e-07 -1.13155727e-06 2.78495281e-06
      -2.36143535e-07 2.00456748e-06 -6.79853201e-07 -2.67820383e-06
      -2.02598869e-07 1.44154649e-06 3.26347754e-06 1.40197142e-06
      1.12043949e-06 -1.73003559e-06 2.56498907e-07 1.72624209e-06
      -1.91537985e-08 -3.25440988e-06 3.15891555e-07 -9.59904810e-07
      -5.77789251e-07 -4.22865213e-07 -7.46894329e-07 1.70068205e-07
      5.15555598e-07 3.23085192e-06 1.64484368e-06 -1.10576264e-06
      2.32973366e-06 -2.83668169e-06 8.31630473e-07 -2.34606046e-06
      5.55781980e-07 2.35897528e-06 -1.00167188e-06 8.24609401e-07
      3.76824914e-07 -1.20993320e-07 -1.08952827e-06 8.73217459e-07
      -1.88764062e-07 8.09755022e-07 -2.58031423e-06 -4.17732252e-07
      -1.53424367e-06 -3.34884987e-07 -2.35405992e-06 -3.25139212e-07
      -1.48311767e-06 1.54441398e-06 -2.64719688e-07 -1.23738937e-06
      7.44233830e-07 -1.46886123e-07 -4.15615716e-07 -1.08763197e-06
      1.00295388e-07 -4.74199169e-07 4.88543776e-07 7.24693791e-07
      1.76697870e-06 -1.35069172e-06 3.88933984e-07 -5.45126113e-07
      -5.77603771e-07 -1.16393119e-06 5.33885384e-07 3.69529289e-07
      8.79589436e-07 -3.77969123e-08 -3.21495077e-06 -1.64875382e-06
      -1.31358107e-07 1.53035614e-06 1.04727815e-06 9.28110993e-08
      9.40932182e-07 -3.71215515e-06 -5.72307101e-07 -5.86501301e-07
      1.01080877e-06 -9.83886025e-07 2.13734347e-06 -1.07470942e-06
      4.67328505e-07 1.73258661e-06 -3.01075079e-06 -7.12722397e-07
      -7.30956140e-09 5.44544321e-07 1.37406417e-07 2.57604484e-06
      -8.06381763e-07 4.96176256e-07 5.83939027e-07 -1.72683167e-06
      -1.44364731e-06 2.04440809e-07 -5.54071050e-07 2.86056343e-06
      -1.60138961e-06 3.96306774e-07 -3.78204845e-07 5.12092868e-07
      -9.27520745e-08 8.99497365e-07 -1.62213234e-06 2.78407470e-07
      -1.30406534e-06 -1.23216282e-07 -1.21258006e-06 1.00077091e-06
      2.74498746e-07 -1.24587174e-07 4.58214771e-07 1.57725196e-07
      -7.37770563e-07 -1.29451962e-06 -2.37236941e-06 2.85284659e-06
      1.68914411e-07 6.95207461e-07 -2.48852956e-07 6.54673784e-07
      -6.04053866e-07 -2.33759906e-07 -4.69186062e-07 -1.31198647e-06
      5.06352578e-08 6.53888321e-08 1.19652896e-07 -1.06473451e-07
      1.31500130e-07 -8.56397321e-07 -1.02462621e-07 -3.22676101e-07
      1.01056564e-07 7.67183565e-07 -7.83220855e-07 3.79990240e-07
      7.91050070e-07 3.17408853e-06 1.75017999e-06 -9.87688736e-07
      1.80787731e-06 -2.77251388e-06 7.82136226e-07 -2.30259502e-06
      1.32690207e-06 1.54307065e-06 -5.88430453e-07 3.97354825e-06
      -6.29243289e-08 -2.80885757e-07 4.37091188e-07 -1.24553924e-06
      7.38518963e-07 -2.44089642e-06 2.25306849e-06 6.49355229e-07
      6.37442213e-07 -1.70018734e-06 -3.54859850e-07 2.40516169e-06
      1.92638322e-06 1.06593097e-06 8.77163870e-07 -1.78613061e-06
      1.57719319e-06 7.33540844e-07 -4.17059482e-07 -3.58407021e-07
      2.06987977e-07 3.11149449e-07 -1.67006306e-07 -5.88784928e-07
      -3.74995437e-07 2.73884723e-07 3.40479664e-06 -3.75411247e-07
      2.05137985e-06 -1.97280269e-06 -9.72582370e-08 1.68670579e-06
      -9.96484118e-07 -1.48484867e-06 -7.35381889e-07 1.37565994e-08
      -4.73776879e-07 1.11334913e-07 -1.78728146e-06 2.79177357e-07
      -6.32305216e-07 -6.00855174e-07 2.20654647e-06 -1.57652789e-06
      8.18131923e-07 4.98371605e-07 -2.39994415e-06 4.64136889e-07
      8.08169943e-07 4.94222547e-07 1.33121102e-06 8.78603785e-08
      -5.24109289e-08 -5.43618796e-07</_>
    <_>
      2.55167561e-06 -9.08842850e-08 -4.82820315e-06 -1.00687475e-06
      -2.57841634e-06 -1.22559140e-06 -1.71398153e-06 3.30024750e-06
      -1.14707952e-07 1.23843017e-06 -2.43935915e-06 4.20560673e-06
      -3.72048316e-06 6.11338510e-06 -3.20944650e-07 3.48183084e-06
      -1.02767535e-06 -1.90928745e-07 8.78015385e-07 1.64668540e-06
      4.45715796e-06 9.04996853e-07 -1.29502169e-07 -5.30050158e-07
      1.61217429e-07 3.35185632e-07 -1.39633687e-06 4.82933444e-07
      5.30368743e-06 3.16136607e-06 -7.24211247e-07 1.01290868e-06
      1.15607497e-06 5.72618619e-10 -3.78824978e-07 -1.76266326e-06
      7.39561131e-07 3.28705619e-06 -8.52211883e-07 1.23826703e-06
      1.47103222e-07 -2.99520207e-06 2.23051984e-06 6.19732106e-08
      7.26813141e-07 -3.82251386e-07 -3.16231564e-07 1.12391683e-06
      -5.14727208e-06 2.13563408e-06 -2.23694110e-06 3.00794363e-06
      -1.80759770e-07 2.35565238e-07 -3.16639671e-06 8.06605954e-07
      -8.58214605e-07 -1.42037936e-06 -2.40001691e-06 -1.99379883e-06
      -7.51976813e-07 1.61596620e-06 3.02567855e-07 3.92390547e-07
      -4.02674601e-07 -1.72535897e-06 5.60679325e-07 3.65119462e-07
      1.13533451e-06 -7.39648840e-07 1.27645876e-06 -1.77013703e-06
      1.60116906e-06 -4.97724670e-07 -8.49503067e-06 -1.24962548e-06
      -2.18587616e-06 4.84527072e-06 -1.26855355e-07 -1.15050135e-07
      -6.44542979e-07 -3.70019552e-06 3.73513984e-07 2.82931614e-06
      3.50130631e-06 1.62430956e-06 -1.82854762e-07 -6.72974647e-06
      4.68652433e-06 -1.92936682e-06 -4.37618655e-06 -4.70027999e-07
      5.11158760e-07 1.07521475e-06 1.27921771e-06 9.65733648e-07
      -2.94260030e-06 1.64139874e-06 -1.22466906e-06 3.29524624e-07
      -3.32011814e-06 2.98068130e-06 -5.58928207e-07 2.05425545e-06
      -6.07349932e-07 -4.97519295e-07 1.27783460e-06 2.30266313e-08
      3.61475600e-07 -7.59869891e-08 -1.95169378e-06 5.61285788e-07
      9.49040313e-08 1.38289602e-06 -1.44611391e-07 6.64065226e-07
      -1.65563335e-06 1.06067557e-06 -2.72666028e-07 -3.91253025e-06
      -2.55773647e-09 -1.96698193e-06 2.14345664e-06 2.45573688e-06
      4.17412480e-07 -2.22302810e-06 -3.71837905e-06 -1.30649369e-06
      -1.26293639e-06 3.02392641e-06 -1.44371097e-06 -1.08336565e-06
      -3.14257704e-07 1.50539307e-07 1.76044146e-09 2.02558141e-07
      -3.89086594e-08 3.24023773e-07 2.42600777e-07 7.21050014e-07
      -7.51119217e-07 -1.87243018e-07 -6.36195940e-09 -1.36144621e-07
      6.00990734e-06 3.82827056e-06 9.17005821e-07 4.99838222e-07
      2.44776561e-06 -8.38674964e-07 7.81952338e-07 -3.54635472e-06
      1.31451395e-06 3.74896808e-06 -1.23273117e-06 -3.27588214e-06
      -5.42795782e-08 -1.19359072e-06 1.82461963e-06 3.24453708e-06
      1.44838441e-06 1.24511337e-06 6.55824749e-07 -1.35592984e-06
      3.18119123e-06 3.55942689e-06 -2.33441597e-06 5.84693771e-06
      -1.62623132e-06 2.20209813e-06 -2.00550789e-06 -1.60061745e-06
      3.98810607e-06 -1.23698180e-06 2.79693467e-07 -1.79218853e-06
      2.31957006e-06 -1.71767198e-07 1.73324156e-06 3.51531213e-07
      -2.38605435e-06 2.18088917e-06 3.43328338e-06 -4.24821883e-06
      7.83799123e-07 -2.93803646e-06 3.50867049e-06 1.55783039e-06
      -6.08298308e-07 -1.82494819e-06 -2.92059576e-06 2.93166948e-07
      1.91699132e-06 -7.18582271e-07 -1.22867641e-06 -1.61901175e-06
      9.69290852e-08 1.89830814e-06 1.45114109e-06 -8.90209265e-07
      -1.50286667e-06 -2.18155083e-06 -3.35439267e-07 -2.20726292e-06
      -5.22483469e-06 5.43608621e-06 -2.77309209e-06 -3.57356566e-06
      4.01675516e-06 -4.44264288e-06</_>
    <_>
      -3.23797690e-06 2.92293885e-06 3.07020878e-06 1.38361713e-06
      2.72842476e-06 2.34377558e-06 1.08574829e-06 -2.43398608e-06
      -6.94467985e-08 1.80203915e-06 2.35197740e-06 -2.27883311e-06
      1.60194747e-06 -2.90317530e-06 4.66865004e-07 -1.22346557e-06
      5.22590256e-07 2.26451834e-06 -1.71010322e-06 1.06010748e-06
      1.59437423e-06 3.44499718e-08 -8.53324366e-07 6.51922846e-07
      9.60448460e-07 -5.19150319e-07 1.02893057e-06 -8.07691833e-07
      1.53531846e-06 -3.80184269e-06 3.63499294e-06 -7.60029266e-08
      2.57479110e-06 1.60877789e-06 2.08166398e-06 -1.61660455e-06
      -9.05266177e-07 4.52545663e-07 -1.03728848e-06 -1.45011836e-06
      1.23579082e-06 1.06882646e-06 1.65619156e-06 7.03755006e-07
      -1.80350253e-06 -6.15549283e-08 2.45327840e-07 1.34834340e-06
      2.60364845e-06 -7.55490930e-07 1.01841192e-06 -1.83769293e-06
      1.28762224e-06 -3.18503976e-06 7.37450989e-07 7.59375666e-07
      -9.79781362e-07 -7.55014412e-07 2.99099526e-07 -1.38537177e-06
      9.18005085e-08 -4.03736664e-07 1.77038885e-07 -6.44809859e-07
      -4.15231938e-07 -9.00249404e-08 1.24322810e-06 -9.86971372e-07
      -8.31500060e-08 -1.31032982e-06 2.65121940e-07 -9.03517673e-07
      1.00438012e-06 -1.73592127e-06 2.18651007e-06 -1.00624781e-07
      6.84513111e-07 -2.57009810e-06 9.56699893e-08 6.68104065e-07
      1.83418467e-06 1.27853571e-06 1.31024672e-06 -8.13213148e-07
      -1.75327386e-06 -1.07289929e-06 -1.65758718e-06 9.01693511e-07
      1.35248456e-06 -2.19950721e-06 9.17651789e-07 -5.29044542e-07
      3.02582947e-07 -1.03673165e-06 -4.54963782e-08 -2.62860226e-06
      1.09787459e-06 2.80932954e-06 7.41900195e-08 2.33867354e-06
      5.35699712e-07 -1.78214009e-06 -3.53003270e-06 2.16989997e-06
      -4.18301579e-06 4.89944966e-07 -1.03931450e-06 3.09304085e-07
      -2.12349278e-07 6.36254185e-07 6.62031923e-08 5.07525215e-07
      -8.63151342e-07 -7.47360559e-07 -9.07474828e-07 -2.75117571e-07
      1.72955438e-07 4.99743294e-07 -8.24302674e-07 2.12555960e-06
      -3.15472846e-07 8.22503296e-07 -2.69416063e-08 -1.09799862e-06
      -8.82647782e-07 1.84587111e-06 1.15566070e-06 1.36127392e-06
      4.66737816e-07 -7.73256204e-07 2.69132869e-07 1.23499785e-06
      5.47486195e-07 -1.85813462e-07 7.59552108e-07 -3.87632639e-07
      -5.58304407e-07 -4.17272446e-07 -9.27472911e-07 -7.94277241e-07
      6.95413632e-07 8.69930432e-07 -2.34415438e-07 7.64021934e-07
      2.12203963e-06 -2.72801640e-06 2.60889578e-06 -6.82812185e-07
      2.12244754e-06 9.49963578e-07 1.14959721e-06 -4.36464944e-07
      4.25581362e-07 7.24795446e-10 4.19594869e-07 -2.90622938e-06
      1.36371546e-06 -6.81676227e-07 -1.55813404e-06 -8.13639076e-07
      -1.67714995e-06 2.10864528e-06 6.39963162e-07 -1.91280105e-06
      6.14385783e-07 -1.75422565e-06 2.22181188e-06 -1.27542614e-06
      1.21528819e-06 -9.43475754e-07 3.43186599e-07 6.82412804e-07
      2.65242988e-07 -4.73763919e-07 -5.92143408e-07 4.45439497e-07
      -1.52654835e-07 1.88785089e-06 -2.30434057e-06 1.34286509e-07
      -9.75052330e-07 -2.33971107e-07 7.54668179e-07 2.50279550e-06
      3.32605055e-07 1.70927331e-06 -2.39777421e-07 -4.65770768e-07
      1.25200438e-06 1.41429382e-06 2.75319235e-06 -2.49969185e-06
      -1.95151188e-06 1.34718528e-06 -1.09123880e-06 3.73679114e-07
      2.06227270e-07 -2.23519623e-06 1.08492884e-06 -1.47858998e-06
      -6.53839827e-09 1.07502717e-06 6.72810472e-07 1.28468378e-06
      1.24219775e-06 1.14742056e-06 -6.08224013e-07 -3.08259359e-06
      2.53112307e-06 -7.28918394e-07</_>
    <_>
      2.48136894e-06 -2.54965494e-06 -4.25337674e-07 -3.72786388e-07
      8.00705550e-07 -2.27923942e-06 1.34025981e-07 2.05916962e-07
      5.58273939e-07 -1.46797436e-06 -1.49603352e-06 1.86812099e-06
      -1.23293898e-06 2.70936766e-07 -1.40799921e-06 -6.46942794e-07
      9.01308908e-07 7.83405767e-07 -6.67021425e-07 4.74856961e-07
      4.62910293e-06 3.21622224e-07 -7.59212639e-07 2.41882435e-06
      1.33911294e-06 -1.65956305e-06 1.75637103e-06 -1.87736293e-06
      2.47190110e-06 -2.57845068e-06 1.72127136e-06 4.16751433e-08
      2.12490659e-06 1.61441346e-06 1.56424505e-06 1.84132739e-06
      2.61678269e-06 -2.87622402e-06 2.10002668e-06 1.42326473e-06
      2.79255488e-07 1.68081868e-07 2.05262978e-07 6.51269772e-07
      -1.15025841e-06 4.27205265e-07 4.95244990e-07 1.25937470e-06
      -1.36414326e-06 1.01882608e-06 -1.47107801e-06 1.76733479e-07
      -9.97812890e-07 -2.27689043e-07 -2.69468956e-07 6.60130070e-07
      -6.16502348e-07 -1.06184143e-06 3.52434768e-07 -1.43451905e-06
      -9.05904358e-07 9.83857944e-07 -5.63290882e-07 -1.58764112e-06
      -1.22048107e-06 -1.58406010e-07 7.78942081e-07 -4.27724416e-07
      1.10918371e-07 -7.96294842e-07 1.78887910e-06 -2.98856634e-07
      -6.30459567e-07 -5.52958738e-07 2.87703165e-06 1.87074272e-06
      -4.03139239e-07 -1.07756864e-06 -1.21456446e-06 7.86203600e-07
      6.50220926e-08 2.26857628e-06 7.55817609e-07 5.98273630e-07
      -4.81437269e-07 9.32685396e-07 -1.11026952e-06 1.61092896e-06
      -9.24635515e-07 -6.72750673e-07 4.80756626e-07 -2.33272317e-06
      1.65124618e-06 -2.64083428e-06 -2.50061726e-06 -1.95203643e-06
      1.11990275e-07 2.40705526e-06 -3.91070103e-07 9.43388329e-07
      1.06990598e-07 2.28988415e-06 -1.23734608e-07 -2.17982188e-06
      -1.45031470e-06 -1.90668302e-07 4.96739119e-07 3.98927483e-07
      -1.22480833e-06 -5.05491698e-07 -8.73680506e-07 4.43991411e-07
      -9.24370568e-07 -2.09462314e-07 -1.56540864e-06 1.67825806e-06
      -5.33339573e-07 2.47319008e-07 -4.05932326e-07 -1.39570977e-06
      1.99974622e-07 2.03367631e-06 3.37442680e-06 -4.02848087e-07
      6.04853545e-09 8.22657114e-07 -8.20080459e-07 8.07629817e-07
      -2.79741403e-06 -6.02817352e-08 2.24500332e-06 -8.53036056e-07
      1.20960976e-06 -2.33046833e-07 1.93401064e-07 -1.05250547e-06
      -3.87966139e-07 -5.84841985e-07 -4.76451703e-07 -1.57984562e-06
      1.14001125e-06 -4.27270294e-07 9.93783942e-07 2.14176794e-07
      2.70373016e-06 -2.03943978e-06 7.29715794e-07 -7.56187035e-07
      1.93916026e-06 5.65345658e-07 -4.65881499e-07 3.22851383e-06
      2.48062565e-06 -1.25685574e-06 2.48758511e-06 -6.31813873e-06
      1.94651506e-07 -1.57385034e-06 -2.51590137e-07 2.59308740e-06
      -1.15059237e-07 4.45449132e-06 -1.95224928e-07 -3.93783648e-06
      3.38860127e-06 3.21075345e-06 -2.70505950e-07 1.99778788e-06
      -1.77222626e-06 8.81434460e-07 -7.68677353e-07 2.19855178e-06
      -3.61067009e-07 -4.29863661e-07 1.54417620e-07 -1.06712525e-06
      1.66989503e-06 8.97875111e-07 -9.94899807e-08 -4.56870623e-07
      -1.91807180e-06 7.43701150e-07 2.62506546e-06 -7.18593867e-07
      1.03012223e-06 1.38934183e-07 1.96052133e-06 -2.57380634e-07
      1.06507889e-06 -6.16886950e-08 -3.93505815e-07 -7.93901961e-07
      -5.54982023e-07 1.39446513e-06 -1.57675095e-06 4.80866220e-07
      5.71834164e-07 6.28551788e-07 -4.82600399e-07 -8.98762721e-07
      -4.06668960e-06 -1.48608223e-07 3.06835614e-06 -8.03179773e-07
      2.15758791e-06 -2.14235143e-07 6.88515058e-07 -2.18305308e-06
      2.92638310e-06 -1.35659900e-06</_>
    <_>
      7.10557242e-06 -8.14703162e-06 -5.84050122e-06 -2.40054737e-06
      -3.37425922e-06 -5.36989319e-06 -1.74631998e-06 5.41063082e-06
      3.69026878e-07 -5.45849525e-06 -7.80837763e-06 6.35045262e-06
      -5.08276025e-06 5.38528820e-06 -1.29408841e-06 2.42547844e-06
      9.32066200e-07 -2.63354696e-06 -1.41686158e-07 5.16849298e-07
      8.11229893e-06 3.25090150e-06 -3.76984190e-07 5.48668595e-06
      8.37643938e-07 -1.53482074e-06 9.65352456e-07 -1.85247256e-06
      5.02858074e-06 -7.27930228e-07 -1.21332778e-06 5.92401193e-07
      -1.21678099e-07 1.56171723e-06 -8.49377102e-07 6.14189776e-06
      7.44782074e-06 -6.32978026e-06 5.99601663e-06 5.05954586e-06
      -3.20570507e-07 -3.72202209e-07 -1.04794260e-07 5.50844618e-07
      -1.93161122e-06 5.34469848e-07 2.28231602e-06 4.49557683e-06
      -7.23604035e-06 4.58664681e-06 -4.91948276e-06 1.95427720e-06
      -3.96540509e-06 2.11148608e-06 -8.04500701e-07 1.63717164e-06
      -1.30276408e-06 -1.88549905e-06 8.90933961e-07 -2.29228340e-06
      -2.28531871e-06 2.86791692e-06 -1.43358909e-06 -2.36405936e-06
      -2.79015353e-06 -1.44309737e-08 3.63909606e-07 2.91148410e-07
      4.47189166e-07 -6.17540877e-07 4.39112728e-06 8.27313272e-07
      -2.79545156e-06 1.04657738e-06 1.41089367e-06 6.78502829e-06
      -1.23313350e-06 1.17064599e-06 -2.77662321e-06 1.80916777e-06
      -2.23725397e-06 1.38280018e-06 6.86859892e-07 1.93700293e-06
      3.66936320e-06 4.51494361e-06 -1.84831526e-06 -8.72066579e-08
      -2.71466411e-06 8.15325109e-07 -3.68568476e-06 -4.12073041e-06
      3.05059871e-06 -3.53351993e-06 -4.62298476e-06 -3.11746294e-06
      1.22678944e-06 7.09763810e-07 -7.61836930e-07 -2.14597480e-06
      -2.22246490e-06 9.52575738e-06 6.83232429e-06 -8.67166455e-06
      3.56353462e-06 -1.55857276e-06 2.20099082e-06 -7.81410350e-08
      -1.86576290e-06 -1.01938076e-06 -2.13140402e-06 1.12582848e-06
      -7.86757369e-07 3.41494143e-07 -2.31516401e-06 4.01539000e-06
      -9.66613925e-07 9.74360930e-08 -3.73397540e-07 -5.55787256e-06
      7.11240716e-07 1.94012978e-06 6.83357393e-06 2.49446680e-06
      -4.45845281e-08 4.79255277e-07 -4.44572697e-06 8.94163122e-07
      -7.35264939e-06 1.07573590e-06 4.14047463e-06 -3.40814631e-06
      1.21802702e-06 -2.15440394e-07 6.50770517e-07 -2.24531732e-06
      6.91636444e-07 -6.25290454e-07 6.47414709e-08 -2.10728717e-06
      1.15153068e-06 -2.14520469e-06 2.79726464e-06 -1.30855096e-06
      4.61717582e-06 2.44941333e-07 -2.20391826e-06 4.83190149e-07
      6.20374351e-07 1.67208000e-07 -3.08016115e-06 6.78442711e-06
      5.11781036e-06 -1.98285329e-06 3.96481528e-06 -9.77465425e-06
      -4.36694472e-06 -1.17471529e-06 -1.19818287e-06 7.60552166e-06
      -1.12698820e-06 9.36993001e-06 -1.21316293e-06 -5.66376502e-06
      6.89509579e-06 9.63529328e-06 -4.43873569e-06 7.26819007e-06
      -2.76703372e-06 5.73602256e-06 -3.08970243e-06 1.63914490e-06
      -1.82404506e-06 3.94441855e-07 1.27270630e-06 -4.04116781e-06
      3.18668526e-06 -1.99672218e-06 3.39370649e-06 1.51447679e-07
      -2.76870151e-06 2.54584211e-06 5.45739749e-06 -3.92214679e-06
      2.85579449e-06 -1.96504743e-06 3.78067443e-06 -7.87419538e-07
      1.40104203e-06 -4.62928119e-06 -4.77870572e-06 1.32963544e-06
      3.96095129e-06 8.92503635e-07 -1.98421230e-06 6.69090298e-07
      2.08457209e-06 5.19876176e-06 -3.78298114e-06 1.14552881e-06
      -1.13247288e-05 -3.48739582e-06 7.35744061e-06 -5.16637465e-06
      -3.01312696e-07 -3.81874571e-07 8.00853854e-07 -1.48401421e-06
      4.08552796e-06 -3.87493856e-06</_></support_vectors>
  <uncompressed_sv_total>113</uncompressed_sv_total>
  <uncompressed_support_vectors>
    <_>
      1.42019258e+04 -7.20911084e+03 -8.58921582e+03 -3.20429199e+03
      -1.32417712e+03 -8.14986963e+03 -2.60754248e+03 2.99205200e+03
      1.27064445e+02 -4.07195801e+03 -4.23470801e+03 1.16034932e+04
      -4.85684229e+03 8.62624414e+03 -6.62550977e+03 2.06615088e+03
      -2.37922583e+03 -5.93721252e+02 3.97672656e+03 -3.46492969e+03
      7.35456094e+04 -5.14041650e+03 3.46348008e+04 3.22547051e+04
      9.61391797e+04 1.03159424e+04 -2.67488359e+04 -1.85237109e+04
      5.03570586e+04 1.29696807e+04 3.25791621e+04 -4.13819629e+03
      2.27901191e+04 1.51467041e+04 5.39696953e+04 -6.15448125e+04
      2.35405000e+04 -1.60620801e+04 1.03356094e+04 2.28610117e+04
      -8.37224731e+02 1.15373711e+04 -1.77299609e+04 7.05429346e+03
      -1.39222363e+04 7.28375830e+03 -1.74171606e+03 1.55012461e+04
      -2.05661270e+04 1.22169375e+04 -2.68220117e+04 -8.17953174e+03
      -2.81025703e+04 1.78761582e+04 1.04133037e+04 -1.26868823e+03
      -8.53094727e+02 1.84164648e+04 1.83361016e+04 4.95096055e+04
      6.20959424e+03 -1.55976104e+04 -9.51719238e+03 2.18226172e+04
      7.12337695e+03 1.55201328e+04 -3.67709869e+02 7.72058008e+03
      6.94294336e+03 2.57554375e+04 -3.11612793e+04 1.13708799e+04
      -9.33365039e+03 3.49474707e+03 2.97583418e+04 3.72965938e+04
      1.09160508e+04 -2.71100137e+04 -5.06358154e+03 2.24193047e+04
      1.81213379e+04 9.48573047e+03 5.87039990e+03 -6.08377930e+03
      -3.10566626e+03 8.67995117e+03 -2.30953477e+04 2.19645801e+04
      -9.05062598e+03 1.59771631e+03 1.46820016e+05 1.09796865e+04
      -2.89897305e+04 -3.10134277e+04 5.83836836e+04 6.22825732e+03
      5.15425000e+04 -8.89842676e+03 3.83880898e+04 2.87873516e+04
      8.96411250e+04 -9.41485859e+04 1.94847051e+04 -2.51315605e+04
      1.11293066e+04 4.64583691e+03 -1.06185332e+04 -8.03132690e+02
      7.26951758e+03 7.91205371e+03 -3.22469940e+02 3.68292993e+03
      -5.83221680e+03 -1.23522742e+03 -4.42570282e+02 -5.41113672e+03
      8.11317969e+03 -3.40617456e+03 6.72116089e+02 2.56962715e+04
      3.02568335e+03 -1.88801836e+04 -1.86155312e+04 -3.97776465e+03
      -7.38152197e+03 1.01226768e+04 3.93687427e+03 -2.44832275e+03
      1.67658809e+04 -2.02702109e+04 7.67910693e+03 -1.01922137e+03
      7.28919385e+03 -1.04692686e+04 1.71365881e+03 -1.31318926e+04
      3.53566309e+03 -1.14753242e+04 -6.96175146e+03 -2.17871191e+04
      2.08382227e+04 -1.44611511e+03 4.74606787e+03 -1.90667737e+03
      3.76075312e+04 1.11726533e+04 2.10947402e+04 -3.10592773e+03
      1.53321113e+04 7.49562402e+03 3.21242715e+04 -3.82561875e+04
      1.94415508e+04 -8.96814160e+03 8.27546094e+03 1.67982578e+04
      -5.47206201e+03 8.05483691e+03 -1.41936113e+04 -6.27832959e+03
      -1.01664902e+04 -1.49455359e+03 1.56763760e+04 -3.08538452e+03
      4.86589996e+02 3.54979570e+04 -1.16939854e+04 3.06721719e+04
      7.04005762e+03 4.29852695e+04 -4.16494570e+04 5.20100977e+03
      -5.17059961e+03 2.55329443e+03 7.26595508e+03 -1.54605049e+04
      -4.06037524e+03 -1.50644961e+04 9.48383203e+03 4.19004395e+03
      -9.23843201e+02 -1.49341272e+03 3.64475586e+04 1.16656924e+04
      4.24745000e+04 -3.24848926e+04 -4.99958252e+03 -1.18996729e+03
      4.27378174e+03 1.27876367e+04 2.22875098e+04 -1.60990762e+04
      -5.08486035e+03 -4.76836377e+03 3.84703760e+03 6.94467188e+04
      -6.24931836e+04 1.16419080e+03 -1.17983301e+04 7.20133887e+03
      6.50235703e+04 -1.25165391e+04 1.39898379e+04 -6.04087549e+03
      1.93782832e+04 -4.62229492e+03 2.44844409e+03 5.96494141e+03
      -1.89801709e+03 3.43552026e+03</_>
    <_>
      9.66075293e+03 -7.54819043e+03 -9.37094336e+03 -3.06942358e+03
      -5.04470117e+03 -4.59551123e+03 -3.45252979e+03 5.90899023e+03
      -8.87714417e+02 -6.11248438e+03 -6.39448389e+03 8.54079004e+03
      -4.48611523e+03 8.38751855e+03 -2.27807446e+03 4.61315430e+03
      -2.35193433e+03 -4.90391309e+03 2.98819312e+03 -3.04252856e+03
      8.40870859e+04 -5.41693555e+03 4.16140078e+04 3.86457148e+04
      1.14682898e+05 1.29444336e+04 -3.23366113e+04 -2.18786250e+04
      5.63130117e+04 1.43251270e+04 3.84196758e+04 -4.39368262e+03
      2.48438887e+04 1.81290430e+04 6.36646133e+04 -7.33018594e+04
      2.62982031e+04 -1.98933613e+04 1.11565869e+04 2.88466523e+04
      -4.20166357e+03 1.29762627e+04 -3.17916484e+04 8.03965234e+03
      -1.62207822e+04 1.15908828e+04 3.07782178e+03 2.12491953e+04
      -2.60952207e+04 1.38399717e+04 -3.09262637e+04 -1.32004678e+04
      -3.95235664e+04 2.67370508e+04 1.65116953e+04 1.98017053e+03
      7.97176147e+02 2.15438262e+04 1.90132695e+04 6.03102734e+04
      6.31209229e+03 -1.55210908e+04 -1.18163125e+04 2.68171934e+04
      5.36536963e+03 2.09005234e+04 -2.88645532e+03 1.35163203e+04
      1.01202148e+04 3.45117773e+04 -3.86620781e+04 1.17400195e+04
      -1.08018135e+04 5.31701270e+03 2.95643691e+04 3.92950859e+04
      1.14598799e+04 -2.73306621e+04 -4.55929932e+03 2.96378809e+04
      1.97162617e+04 8.05826611e+03 5.21317725e+03 -4.45573291e+03
      -1.11778027e+03 9.57983594e+03 -2.32848730e+04 2.45119570e+04
      -8.86644141e+03 4.96106885e+03 1.85117531e+05 1.06006104e+04
      -2.77682539e+04 -4.02336445e+04 6.83789844e+04 -2.67961719e+03
      7.23047734e+04 -1.74652422e+04 5.78625195e+04 3.92952695e+04
      1.21430969e+05 -1.21387891e+05 1.72233770e+04 -3.11646250e+04
      1.44315654e+04 5.04422266e+03 -1.12974473e+04 -2.41135559e+02
      1.07193398e+04 9.22841895e+03 -7.24297913e+02 3.47641699e+03
      -5.35676465e+03 -1.34443701e+03 -1.01763129e+03 -5.11442578e+03
      1.00563672e+04 -2.97870117e+03 1.98885339e+03 2.66959180e+04
      1.70629297e+03 -2.62382363e+04 -2.17236777e+04 -1.82194458e+03
      -7.27079492e+03 9.44693262e+03 3.67308081e+03 -8.21128906e+02
      1.55167500e+04 -2.38029766e+04 6.40890186e+03 -3.84193359e+03
      9.77387012e+03 -1.15419180e+04 4.89163525e+03 -1.83359336e+04
      5.85941699e+03 -1.66397305e+04 -9.92046582e+03 -3.01055117e+04
      2.74056953e+04 3.21939728e+02 6.22944922e+03 -2.39780103e+03
      4.04903164e+04 1.57355850e+04 2.05905879e+04 -7.92940063e+01
      1.03219219e+04 7.82438721e+03 3.29506250e+04 -4.31776914e+04
      2.31003145e+04 -1.19930498e+04 7.87566943e+03 2.30390840e+04
      -1.12590459e+04 1.04729209e+04 -1.87178594e+04 -9.66928125e+03
      -1.91452480e+04 4.53110010e+03 2.04470586e+04 -4.79162506e+02
      1.38128235e+03 4.05207422e+04 -1.37118721e+04 3.60144062e+04
      1.56012168e+04 5.81485352e+04 -5.31334609e+04 -5.20363342e+02
      -9.86514258e+03 3.26320068e+03 7.19497656e+03 -1.56239883e+04
      -6.80774658e+03 -2.03791211e+04 1.41071572e+04 6.95270312e+03
      1.74019702e+03 -4.95018494e+02 3.79640078e+04 1.73505000e+04
      5.48676367e+04 -4.38173203e+04 -1.04055713e+04 -6.38509424e+03
      2.10589478e+03 1.40413701e+04 3.15570527e+04 -2.47943984e+04
      -5.66093604e+03 -6.81184766e+03 3.39809644e+03 9.47988047e+04
      -8.39172578e+04 -4.56955762e+03 -1.80866074e+04 7.35292334e+03
      8.30186641e+04 -8.94756250e+03 1.85124492e+04 -7.74243604e+03
      2.29541035e+04 -4.71138086e+03 3.81006372e+03 6.97362891e+03
      -3.56423291e+03 2.92001831e+03</_>
    <_>
      8.75771289e+03 -2.11780347e+03 -7.79250879e+03 -5.84110413e+02
      -1.27965979e+03 9.58639893e+02 -2.05268652e+03 2.71788525e+03
      -1.63655847e+03 -1.94455469e+03 -4.39822998e+03 9.81651074e+03
      -4.02801953e+03 8.22031348e+03 -1.96369006e+03 6.36058936e+03
      -5.43240283e+03 -1.72863770e+03 1.55288794e+03 -2.04498389e+03
      5.76279023e+04 -4.99905322e+03 2.78512344e+04 2.74383926e+04
      7.58971562e+04 8.50817676e+03 -2.25167910e+04 -1.46910957e+04
      3.96247070e+04 1.04810703e+04 2.89455430e+04 -4.00285742e+03
      1.89532344e+04 9.77265723e+03 4.30559375e+04 -5.03085508e+04
      2.00570508e+04 -1.25526250e+04 7.42136963e+03 2.24166602e+04
      -2.75449097e+03 9.96409082e+03 -2.32081973e+04 6.39869873e+03
      -1.26096094e+04 8.69769238e+03 9.33492859e+02 1.60442021e+04
      -2.06656562e+04 1.09969629e+04 -2.48183809e+04 -9.55221289e+03
      -3.00989531e+04 2.03072969e+04 1.18074229e+04 8.28499756e+02
      3.58180359e+02 1.46165479e+04 1.42773242e+04 3.99505352e+04
      4.42109229e+03 -1.16871074e+04 -7.98413379e+03 1.77972891e+04
      4.68658252e+03 1.50070400e+04 -1.59404614e+03 8.74145020e+03
      5.14781885e+03 2.24465586e+04 -2.63460898e+04 9.04129688e+03
      -7.04477588e+03 2.74493750e+03 2.39592734e+04 2.78566602e+04
      8.98302344e+03 -2.20813652e+04 -3.16284033e+03 2.09273125e+04
      1.58092451e+04 7.19069922e+03 4.28879492e+03 -4.30758545e+03
      -3.22740381e+03 5.66704346e+03 -1.75276348e+04 1.94841445e+04
      -6.36187012e+03 2.45099756e+03 1.22185969e+05 6.49053564e+03
      -1.96118145e+04 -2.74077207e+04 4.46811250e+04 -5.87921448e+02
      5.15819609e+04 -1.17467080e+04 4.00688711e+04 2.29111426e+04
      8.09895781e+04 -8.24611094e+04 1.27576641e+04 -1.96365078e+04
      7.48193896e+03 3.82668433e+03 -8.82612500e+03 6.74353714e+01
      7.00793555e+03 7.29437988e+03 -8.31648926e+02 2.97974634e+03
      -4.90821680e+03 -1.90252795e+03 -2.01150549e+03 -3.02900146e+03
      7.72359131e+03 -2.12178833e+03 9.81997070e+02 2.11359434e+04
      1.11540161e+03 -1.79921777e+04 -1.65728125e+04 -2.09915430e+03
      -5.78050879e+03 8.30951465e+03 4.40502637e+03 6.81679504e+02
      1.12747734e+04 -1.86019648e+04 5.16805469e+03 -2.06576489e+03
      6.88682129e+03 -7.53873486e+03 3.42291919e+03 -1.34926328e+04
      4.19429541e+03 -1.20331289e+04 -6.25019727e+03 -2.09654238e+04
      1.92840020e+04 2.90233826e+02 3.94889209e+03 -1.11930139e+03
      2.99929316e+04 1.12254814e+04 1.65179844e+04 -1.38364038e+03
      9.51624023e+03 3.44596899e+03 2.24927812e+04 -2.96560645e+04
      1.80421211e+04 -7.26966211e+03 6.01365674e+03 1.62193965e+04
      -7.44570654e+03 7.44222852e+03 -1.42099873e+04 -6.97898193e+03
      -1.35434482e+04 2.86590894e+03 1.56302500e+04 -1.65678088e+03
      1.50682153e+03 3.30422891e+04 -1.08905117e+04 2.87420879e+04
      8.87629004e+03 4.28567969e+04 -4.02535000e+04 1.54984094e+03
      -5.94392139e+03 1.64631384e+03 5.82332520e+03 -1.30260508e+04
      -4.45135986e+03 -1.51305615e+04 1.04522295e+04 4.59251172e+03
      3.24775757e+02 -4.74976288e+02 3.13381895e+04 1.16396738e+04
      4.09295117e+04 -3.22406855e+04 -6.84371533e+03 -3.11067041e+03
      1.90741296e+03 9.38521094e+03 1.98017734e+04 -1.44304258e+04
      -5.52873633e+03 -3.43086670e+03 1.74184668e+03 6.58596016e+04
      -5.82553477e+04 -3.13140747e+03 -1.06467744e+04 3.95048853e+03
      5.84778477e+04 -7.65142041e+03 1.20012021e+04 -4.17049463e+03
      1.84569414e+04 -3.31803271e+03 2.77587573e+03 4.03523584e+03
      -1.34701270e+03 2.08170264e+03</_>
    <_>
      1.08471943e+04 -6.82375098e+03 -9.14147949e+03 -2.64214160e+03
      -3.46694141e+03 -4.14753662e+03 -3.08224121e+03 4.83762744e+03
      -9.82394775e+02 -5.41376074e+03 -6.05486963e+03 9.86689551e+03
      -4.55107910e+03 8.52521973e+03 -3.13592529e+03 4.66637988e+03
      -3.09307397e+03 -3.60402417e+03 2.75095679e+03 -3.13846973e+03
      3.64399961e+04 4.82801416e+03 1.53068418e+04 1.81572051e+04
      3.73144648e+04 6.93984033e+03 -1.64353672e+04 -5.34704297e+03
      2.86522363e+04 1.21466797e+04 8.91719922e+03 4.45051208e+02
      4.84920801e+03 4.21909814e+03 1.60427676e+04 -2.22598125e+04
      1.70442441e+04 -6.64731348e+03 7.15450977e+03 2.68283242e+04
      3.90093237e+03 1.99023770e+04 -9.18706152e+03 1.03241514e+04
      -2.19065371e+04 6.67139697e+03 6.58708447e+03 2.18053008e+04
      -1.85424590e+04 1.37379453e+04 -2.84300801e+04 -9.73367773e+03
      -2.70342539e+04 1.23471055e+04 1.78889707e+04 -2.96214380e+03
      3.06289825e+02 8.84592578e+03 1.14356016e+04 2.04770645e+04
      4.44075244e+03 -1.05024473e+04 -3.21028564e+03 9.73241113e+03
      6.48239844e+03 3.91362988e+03 2.16512939e+03 -1.58401526e+03
      1.37349219e+03 6.96988770e+03 -1.18033145e+04 7.59477490e+03
      -4.83474316e+03 1.27541846e+03 2.67384395e+04 1.31635400e+04
      1.12767373e+04 -2.62932539e+04 1.16725195e+03 1.44845127e+04
      2.11827402e+04 -3.68611230e+03 1.01019004e+04 -1.81601328e+04
      -8.27981641e+03 -1.04681035e+04 -5.59771631e+03 2.14596543e+04
      -5.87365869e+03 3.53940857e+02 6.28562852e+04 3.68765039e+03
      -9.71331250e+03 -1.38286719e+04 2.03778047e+04 -1.53013168e+02
      2.11895293e+04 -3.98159229e+03 1.62379688e+04 1.39961621e+04
      3.94505352e+04 -3.95388711e+04 4.47864453e+03 -1.13492510e+04
      3.99399487e+03 5.14260205e+03 -1.15093301e+04 1.21196008e+03
      5.78581299e+03 9.89159180e+03 -4.17810010e+03 5.27216211e+03
      -9.97133203e+03 -3.52512744e+03 -6.86990430e+03 -2.07293121e+02
      9.25457715e+03 -2.51756616e+03 3.60707062e+02 2.64507676e+04
      -2.19382178e+03 -1.35458564e+04 -2.22121465e+04 6.78003760e+03
      -1.12541533e+04 2.07918613e+04 8.72601270e+03 1.38546826e+04
      2.59456836e+03 -2.13960508e+04 5.45676318e+03 -2.59368134e+02
      4.00972925e+03 -1.47064087e+03 4.31759033e+03 -7.28612451e+03
      2.99500732e+03 -7.75843164e+03 -4.52272168e+03 -1.24283223e+04
      9.79116602e+03 3.04997412e+03 1.83074829e+03 -2.13256973e+02
      2.61558164e+04 1.24316045e+04 4.42034424e+03 4.37922791e+02
      2.68530908e+03 3.41350281e+02 6.32750391e+03 -1.21993115e+04
      1.71748770e+04 -3.00372998e+03 7.23177588e+03 2.10173730e+04
      -1.06095146e+04 1.06122148e+04 -2.05573828e+04 -8.92999219e+03
      -1.82806289e+04 3.96150146e+03 1.95819395e+04 -2.95171313e+03
      1.19343066e+03 2.16292930e+04 -9.96282910e+03 2.26752383e+04
      5.00377588e+03 2.58938105e+04 -2.02089512e+04 -4.62741406e+03
      -4.12277161e+02 2.00651688e+02 7.82373145e+03 -1.59718887e+04
      -4.73462646e+03 -1.38505811e+04 6.13013086e+03 7.53057568e+03
      -1.99170288e+03 -1.14776599e+03 3.41314531e+04 1.10811143e+04
      3.26851758e+04 -1.76400879e+04 -1.39636113e+04 2.81666553e+03
      2.77003735e+03 9.58413770e+03 1.57606738e+04 -8.14908643e+03
      -8.42958496e+03 -1.58497668e+03 2.01869604e+03 4.27955938e+04
      -3.00457949e+04 -1.23208057e+04 -3.13252271e+03 2.65351221e+03
      2.83632871e+04 -8.98441284e+02 5.42589697e+03 -1.69506262e+03
      2.11378379e+04 -2.80816675e+03 2.72914062e+03 3.47919287e+03
      -3.61980957e+02 3.33809424e+03</_>
    <_>
      9.08423145e+03 -1.25579316e+04 -1.79478164e+04 -4.18956592e+03
      -1.41013252e+04 1.41054944e+03 -7.31592383e+03 1.53968018e+04
      -4.20089795e+03 -1.39750518e+04 -1.66739551e+04 1.13585430e+04
      -7.66787061e+03 1.49890498e+04 4.74714307e+03 1.47365273e+04
      -5.57690527e+03 -1.58746309e+04 1.87483545e+03 -4.00727563e+03
      6.37282305e+04 2.48122500e+04 2.77847344e+04 4.60705352e+04
      5.30829766e+04 1.85206836e+04 -4.35160625e+04 -3.94186841e+03
      5.33040469e+04 3.57542383e+04 6.65169727e+03 8.63796582e+03
      -8.96387402e+03 -3.37943896e+03 7.85569482e+03 -2.95040664e+04
      4.35843398e+04 -1.21309023e+04 1.17565547e+04 5.34452812e+04
      6.57013672e+03 4.10759219e+04 -2.38348066e+04 2.06926289e+04
      -4.45940234e+04 1.62739395e+04 3.47106133e+04 4.91061133e+04
      -3.30682070e+04 2.24112070e+04 -4.65112500e+04 -2.24577832e+04
      -5.43635938e+04 2.51125625e+04 4.78873320e+04 -1.35170361e+03
      8.68199707e+03 1.31322197e+04 1.84005176e+04 2.91047031e+04
      6.99920996e+03 -1.65591387e+04 -3.81646704e+03 2.13249160e+04
      1.16393750e+04 6.83681592e+03 1.90546191e+03 2.93340454e+01
      1.00080450e+03 9.83492871e+03 -1.71861367e+04 1.58139893e+04
      -6.42005127e+03 4.71626221e+03 4.75689453e+04 1.53999395e+04
      2.09204492e+04 -4.71913672e+04 6.39383447e+03 4.58184648e+04
      4.42334570e+04 -1.19667305e+04 1.59682959e+04 -2.90799609e+04
      -1.47341826e+04 -2.43949434e+04 -2.84368750e+03 4.92144336e+04
      -7.72448193e+03 1.05753125e+04 9.48908359e+04 2.13365649e+03
      -7.98303711e+03 -2.26602246e+04 2.82243594e+04 -8.24866504e+03
      4.21332812e+04 -1.20706250e+04 3.54720859e+04 2.12311309e+04
      6.78438828e+04 -6.36654062e+04 3.20404126e+03 -1.61460918e+04
      5.86661816e+03 9.68425586e+03 -2.14533730e+04 4.27116113e+03
      1.97092285e+04 2.11773750e+04 -8.64042383e+03 8.32137012e+03
      -1.58872256e+04 -7.62753223e+03 -1.52098799e+04 2.33558057e+03
      2.23599258e+04 -2.67987207e+03 4.62472314e+03 4.83425312e+04
      -8.59258691e+03 -4.52594258e+04 -4.75892344e+04 1.70612383e+04
      -1.81099980e+04 3.34431523e+04 1.69427949e+04 3.12834395e+04
      -2.23647778e+03 -5.01094844e+04 5.79445166e+03 -9.90488672e+03
      7.82022559e+03 2.90106079e+03 1.26337109e+04 -1.50074854e+04
      7.14981543e+03 -1.67411777e+04 -8.97714062e+03 -2.45206758e+04
      1.71355176e+04 1.02725186e+04 2.75549023e+03 9.26315247e+02
      4.98996758e+04 4.17372070e+04 -5.68338281e+03 1.30629043e+04
      -2.07874414e+04 -1.05046670e+04 -1.27177715e+04 -1.23446885e+04
      4.70788906e+04 -8.23251562e+03 1.12502178e+04 5.08822539e+04
      -2.55743047e+04 2.08548984e+04 -3.98624570e+04 -2.07020703e+04
      -4.35000039e+04 1.30091895e+04 4.98132578e+04 -2.07500513e+03
      8.64793457e+03 3.20932695e+04 -1.52348027e+04 3.45033945e+04
      1.58352314e+04 4.79428789e+04 -3.35840039e+04 -1.91039121e+04
      -4.89854102e+03 -1.88329175e+03 9.95273730e+03 -2.02837188e+04
      -9.69439453e+03 -2.41231953e+04 1.17320752e+04 1.88995859e+04
      3.13245483e+02 2.77562866e+03 4.39106836e+04 2.09883262e+04
      5.50968047e+04 -3.14245762e+04 -3.60198320e+04 -1.59311108e+03
      -5.31280957e+03 1.28920293e+04 2.89482520e+04 -1.62108242e+04
      -1.90055195e+04 -2.33712476e+03 -1.87921289e+03 7.80457656e+04
      -5.24544023e+04 -3.60252109e+04 -7.62635791e+03 -3.41300806e+03
      4.55074570e+04 5.82776660e+03 9.03105469e+03 -1.53971313e+03
      5.34271211e+04 -5.63494092e+03 1.10098408e+04 4.58226611e+03
      -2.77441919e+03 3.56045044e+03</_>
    <_>
      1.55527988e+04 -2.06712559e+04 -1.54188105e+04 -8.66084473e+03
      -1.29821191e+04 -1.61465078e+04 -7.07704053e+03 1.41215771e+04
      1.06064920e+01 -1.63650469e+04 -1.40747871e+04 1.04096377e+04
      -7.38605127e+03 1.18431318e+04 -3.39928198e+03 3.47549170e+03
      2.54789233e+03 -1.22262666e+04 5.68929785e+03 -5.56106494e+03
      1.37020516e+05 7.48049463e+03 6.53799258e+04 7.04375547e+04
      1.69408672e+05 2.49997559e+04 -6.10937461e+04 -2.94611914e+04
      9.60136172e+04 3.59698672e+04 4.69804609e+04 3.11444550e+02
      2.39853066e+04 2.28004648e+04 8.18208359e+04 -1.03065500e+05
      5.39735820e+04 -3.22766191e+04 2.07902266e+04 4.49803125e+04
      5.90668640e+01 2.80370566e+04 -3.30622461e+04 1.50419688e+04
      -3.17025918e+04 1.54514512e+04 1.76389648e+04 3.72604648e+04
      -3.38827617e+04 2.02202129e+04 -4.34470938e+04 -1.92816855e+04
      -5.27543555e+04 3.06708340e+04 3.34285430e+04 3.34085052e+02
      4.62320020e+03 3.20597559e+04 3.22774492e+04 8.57588984e+04
      1.10677568e+04 -2.72710430e+04 -1.57820986e+04 4.42387969e+04
      1.40143252e+04 2.57300840e+04 -1.34777051e+03 1.46809619e+04
      1.28236367e+04 4.43078047e+04 -5.28562539e+04 2.31372383e+04
      -1.62478936e+04 9.47042871e+03 5.37973672e+04 6.27656484e+04
      2.11414180e+04 -4.98679805e+04 -5.61656348e+03 5.68686797e+04
      3.88015156e+04 8.96612012e+03 1.05194248e+04 -1.14019619e+04
      -3.55104663e+03 1.00594180e+04 -3.47712617e+04 4.81718750e+04
      -1.54199492e+04 1.17400312e+04 2.56497906e+05 1.79038535e+04
      -4.71416680e+04 -5.43158359e+04 1.04061805e+05 8.14135205e+03
      9.08262891e+04 -1.81177930e+04 7.07931250e+04 5.23814922e+04
      1.59156625e+05 -1.63392453e+05 3.39985273e+04 -4.48048164e+04
      2.27284570e+04 8.99562207e+03 -2.05422793e+04 -1.04241577e+02
      2.14373965e+04 1.76633320e+04 -1.71784119e+03 6.16540625e+03
      -9.30452344e+03 -2.89846948e+03 -2.71656860e+03 -8.15370312e+03
      1.98654961e+04 -5.22593896e+03 4.62674316e+03 4.79989141e+04
      1.92015442e+03 -5.14043008e+04 -4.04318672e+04 -7.14406494e+02
      -1.29313867e+04 1.76130469e+04 6.47433691e+03 1.16089563e+03
      2.41648008e+04 -4.62445586e+04 1.21940264e+04 -1.02362520e+04
      1.33232822e+04 -1.51239473e+04 6.47763184e+03 -2.36124824e+04
      7.46115479e+03 -2.19316445e+04 -1.38938125e+04 -4.03867812e+04
      3.63915625e+04 9.72469727e+02 8.50597070e+03 -3.18785352e+03
      7.20955938e+04 3.60309688e+04 2.39413672e+04 5.34799414e+03
      5.07395020e+03 8.19423535e+03 3.99640430e+04 -6.16122773e+04
      4.81127852e+04 -2.09021348e+04 1.55415381e+04 4.03205273e+04
      -1.56937598e+04 1.65053828e+04 -2.91597539e+04 -1.34374102e+04
      -2.59347422e+04 1.36634741e+03 4.01063867e+04 -4.69588867e+03
      6.77124902e+03 5.09480938e+04 -1.73703750e+04 4.57290625e+04
      2.03115996e+04 7.38296797e+04 -6.63136953e+04 -2.15471265e+03
      -1.27754375e+04 3.77204443e+03 9.70459766e+03 -2.07153652e+04
      -8.76547070e+03 -2.56389902e+04 1.60124629e+04 1.30757842e+04
      1.08889648e+03 1.14122644e+03 4.96779219e+04 2.37202852e+04
      7.12618203e+04 -5.41329102e+04 -2.01087676e+04 -7.54462988e+03
      4.58010803e+02 1.92874434e+04 4.29019219e+04 -3.31767383e+04
      -9.95930176e+03 -8.40238477e+03 3.23190381e+03 1.24487914e+05
      -1.08653172e+05 -9.02097461e+03 -2.38078203e+04 8.56118262e+03
      1.08591969e+05 -1.62008857e+04 2.63471367e+04 -1.20254932e+04
      4.66019805e+04 -1.02107168e+04 1.00088408e+04 9.67291797e+03
      -5.53213916e+03 4.53758594e+03</_>
    <_>
      1.93978867e+04 -1.69747188e+04 -2.44863926e+04 -5.83521826e+03
      -1.44414219e+04 -2.43204517e+03 -9.09575000e+03 1.73412617e+04
      -4.62677588e+03 -1.67586348e+04 -2.01812441e+04 2.06793516e+04
      -1.13948076e+04 2.16627070e+04 4.10810120e+02 1.75723457e+04
      -8.46172754e+03 -1.61973906e+04 4.03009888e+03 -6.34875635e+03
      9.49884688e+04 1.96104824e+04 4.11076094e+04 5.43412188e+04
      9.27454141e+04 2.14705176e+04 -5.06436953e+04 -1.14335137e+04
      7.61833359e+04 3.92266953e+04 1.99481172e+04 4.56978027e+03
      4.75009619e+03 5.34360645e+03 3.30901367e+04 -5.52541250e+04
      5.09414609e+04 -1.72332266e+04 1.78321113e+04 7.47242578e+04
      4.87381641e+03 5.15777031e+04 -4.29784492e+04 2.70654629e+04
      -5.76428203e+04 2.35832188e+04 3.36113438e+04 6.41751680e+04
      -5.19493906e+04 3.39211641e+04 -7.10916719e+04 -3.12826328e+04
      -8.18610312e+04 4.23189297e+04 5.78975469e+04 -1.02197229e+03
      7.13257910e+03 2.12594414e+04 2.46777852e+04 5.21329570e+04
      9.27519629e+03 -2.20420996e+04 -8.49799219e+03 2.83640488e+04
      1.32549082e+04 1.34728369e+04 1.52660156e+03 3.61980664e+03
      5.27718799e+03 2.26356777e+04 -3.15193887e+04 1.82108438e+04
      -1.07634785e+04 5.62784375e+03 6.22271289e+04 2.25774141e+04
      2.71520469e+04 -6.19405781e+04 6.88959619e+03 5.18620859e+04
      5.56782031e+04 -1.34131084e+04 2.18832617e+04 -3.94998359e+04
      -1.98333047e+04 -3.01671797e+04 -6.68755273e+03 5.99047109e+04
      -1.05076289e+04 9.26122266e+03 1.72203781e+05 3.35029419e+03
      -1.16731611e+04 -4.08386602e+04 4.71034570e+04 -1.57510879e+04
      7.02727656e+04 -2.06606543e+04 6.16049336e+04 4.21143477e+04
      1.22559219e+05 -1.13380477e+05 1.57414062e+02 -2.89706719e+04
      1.02143164e+04 1.26949512e+04 -2.81389590e+04 5.18260400e+03
      2.20977441e+04 2.70396406e+04 -1.18447324e+04 1.18484424e+04
      -2.25383418e+04 -9.81930176e+03 -2.00761504e+04 2.81505591e+03
      2.71511992e+04 -3.85786353e+03 4.28434473e+03 6.38130742e+04
      -1.02224365e+04 -5.09710508e+04 -6.07203320e+04 2.18770469e+04
      -2.54362598e+04 4.68876328e+04 2.27372266e+04 4.09073047e+04
      -1.50358691e+03 -6.13769336e+04 8.15778418e+03 -8.59266309e+03
      1.27146162e+04 4.41957397e+02 1.70149668e+04 -2.34123184e+04
      1.04644189e+04 -2.53526270e+04 -1.45860264e+04 -3.96197344e+04
      2.94896992e+04 1.32592471e+04 5.52064453e+03 3.27477509e+02
      7.08230156e+04 4.73281484e+04 1.61572424e+03 9.99265723e+03
      -1.14538359e+04 -7.52999854e+03 -9.96493713e+02 -2.55519883e+04
      5.65264844e+04 -9.15072070e+03 1.73219062e+04 6.48564141e+04
      -3.54295703e+04 2.85846914e+04 -5.50949492e+04 -2.79480156e+04
      -6.00052188e+04 1.99190078e+04 6.11935156e+04 -1.88496729e+03
      8.26838574e+03 5.58625820e+04 -2.57482402e+04 5.83535742e+04
      2.19357695e+04 7.76501328e+04 -5.80793555e+04 -2.22335957e+04
      -6.86624170e+03 -6.58792297e+02 1.69590508e+04 -3.48646445e+04
      -1.39860723e+04 -3.84776875e+04 2.03419941e+04 2.29364844e+04
      -2.72756256e+02 8.25668335e+02 7.56780859e+04 3.16528184e+04
      8.95568750e+04 -5.44136523e+04 -4.36597500e+04 -1.65587964e+03
      -9.22325195e+02 2.32882500e+04 4.73456719e+04 -2.81203164e+04
      -2.54636504e+04 -5.73645752e+03 7.86916687e+02 1.28811352e+05
      -9.15489922e+04 -4.57089336e+04 -1.41779189e+04 8.82629700e+02
      8.07628672e+04 7.60164453e+03 1.58279658e+04 -4.00322217e+03
      6.52915195e+04 -5.09515625e+03 1.19831885e+04 7.89492578e+03
      -2.77246851e+03 6.51696875e+03</_>
    <_>
      1.84884941e+04 -2.91406016e+04 -2.63400352e+04 -1.12022744e+04
      -2.31172461e+04 -1.38691514e+04 -1.19386211e+04 2.48888398e+04
      -3.06174707e+03 -2.67582031e+04 -2.53805039e+04 1.53324570e+04
      -1.15740361e+04 2.00436934e+04 1.55888184e+03 1.31467500e+04
      -1.54628159e+02 -2.40273047e+04 5.86650537e+03 -7.83015576e+03
      9.91538203e+04 3.78046289e+04 4.31264609e+04 6.39780469e+04
      8.93772266e+04 2.70436309e+04 -6.20928242e+04 -8.19482910e+03
      7.93396562e+04 5.20156133e+04 3.18790210e+03 1.52484121e+04
      -1.49889795e+04 3.71520483e+03 1.65898242e+04 -4.56894062e+04
      5.87312930e+04 -1.99722559e+04 1.82600781e+04 8.15634688e+04
      1.03533301e+04 6.34650117e+04 -3.55613594e+04 3.17993340e+04
      -6.85957891e+04 2.46001191e+04 5.26653672e+04 7.46367656e+04
      -4.94650117e+04 3.42931953e+04 -7.09886016e+04 -3.44679922e+04
      -8.25329766e+04 3.74229062e+04 7.31058516e+04 -2.22257446e+03
      1.27066523e+04 1.97990762e+04 2.47365234e+04 4.64356250e+04
      1.00132852e+04 -2.32762520e+04 -6.34537891e+03 3.20387070e+04
      1.74651641e+04 6.31779443e+03 4.11984814e+03 -8.43503418e+02
      5.07633594e+03 1.58472637e+04 -2.55344160e+04 2.07985410e+04
      -9.66475684e+03 7.27393311e+03 6.78009844e+04 1.58245225e+04
      3.06596016e+04 -6.89051719e+04 1.10951904e+04 6.48817422e+04
      6.67397734e+04 -2.36714219e+04 2.60041855e+04 -4.72693828e+04
      -2.21638887e+04 -4.19832305e+04 1.22404749e+03 7.07531797e+04
      -9.58619336e+03 1.42979238e+04 1.58445688e+05 2.04853906e+03
      -8.08525537e+03 -3.75108438e+04 4.59518555e+04 -1.23497871e+04
      5.38505898e+04 -1.51983125e+04 5.31401406e+04 4.45945547e+04
      1.10189461e+05 -9.93741797e+04 -3.01950122e+03 -2.58202227e+04
      1.06837051e+04 1.44734834e+04 -3.19223691e+04 6.70096094e+03
      2.89446055e+04 3.20368359e+04 -1.46457754e+04 1.31807285e+04
      -2.49491113e+04 -1.11423477e+04 -2.40157031e+04 4.68191846e+03
      3.28339414e+04 -3.67884619e+03 6.64726172e+03 7.13449297e+04
      -1.37435176e+04 -6.52794180e+04 -7.10652266e+04 2.94158789e+04
      -2.85436211e+04 5.29680781e+04 2.48714746e+04 5.01877852e+04
      -6.99184473e+03 -7.32178828e+04 8.18694775e+03 -1.42415605e+04
      1.25250459e+04 3.35822266e+03 1.89473926e+04 -2.08383203e+04
      1.02807891e+04 -2.54369277e+04 -1.60863682e+04 -3.87958047e+04
      2.67057051e+04 1.69081621e+04 4.45288037e+03 9.02081543e+02
      7.21113203e+04 6.07854688e+04 -1.34618506e+04 2.12538340e+04
      -3.32236055e+04 -1.07140283e+04 -1.75757441e+04 -1.78179316e+04
      6.54715742e+04 -1.33128145e+04 1.66310859e+04 7.46416953e+04
      -3.88375195e+04 3.14922266e+04 -6.12060820e+04 -3.02860762e+04
      -6.56692891e+04 2.05490547e+04 7.41052656e+04 -4.47878418e+03
      1.32054131e+04 4.24126836e+04 -2.16786699e+04 4.94689453e+04
      2.36105527e+04 6.66842188e+04 -4.39394883e+04 -3.29308047e+04
      -4.59498145e+03 -4.30729932e+03 1.48862939e+04 -3.03681484e+04
      -1.42508975e+04 -3.50075820e+04 1.60492305e+04 2.98481855e+04
      -6.68327026e+02 4.80744385e+03 6.61540781e+04 3.36970039e+04
      8.34896484e+04 -4.61134375e+04 -5.74115742e+04 -2.05600220e+03
      -8.08444482e+03 2.46615312e+04 5.07255469e+04 -3.04976621e+04
      -2.92944258e+04 -5.29710156e+03 -1.25640918e+03 1.22232898e+05
      -8.06844297e+04 -5.92772500e+04 -1.18927812e+04 -4.09502295e+03
      6.71519766e+04 1.40734219e+04 1.38865996e+04 -3.04908203e+03
      7.70834453e+04 -6.79961963e+03 1.46804814e+04 5.87938086e+03
      -3.78077905e+03 4.83499463e+03</_>
    <_>
      1.35393525e+04 -1.99834395e+04 -5.51952344e+03 -1.00549775e+04
      -7.07658203e+03 -2.80792734e+04 -4.11550049e+03 7.30585791e+03
      4.40432959e+03 -1.18690811e+04 -4.90805908e+03 2.91632690e+03
      -3.18854395e+03 2.66523413e+03 -9.68481543e+03 -1.05656768e+04
      1.12636104e+04 -3.66494556e+03 7.27314697e+03 -4.62674854e+03
      4.62239570e+04 1.29459888e+03 2.18704258e+04 1.34384189e+04
      6.52019141e+04 6.24659961e+03 -1.21024121e+04 -1.19610723e+04
      2.89723945e+04 5.72349121e+03 7.11743945e+03 4.74650818e+02
      7.94142383e+03 1.99543594e+04 3.37811562e+04 -3.32190938e+04
      7.54807129e+03 -1.35961660e+04 9.80385645e+03 2.25081836e+04
      3.32431567e+03 1.77376074e+04 -8.41553223e+03 8.88504785e+03
      -1.92767988e+04 5.50860449e+03 2.44391821e+03 1.81648594e+04
      -1.47756582e+04 1.21249209e+04 -2.52632715e+04 -9.55540234e+03
      -2.35495918e+04 1.01355957e+04 1.44522949e+04 -2.63233545e+03
      -1.49222302e+03 1.17821289e+04 9.43235547e+03 3.27031738e+04
      4.35602539e+03 -8.84854297e+03 -5.75757373e+03 1.25474473e+04
      4.66508496e+03 2.05427759e+03 2.23175781e+03 -1.23638939e+02
      8.75286914e+03 1.43178184e+04 -1.60566387e+04 4.63322217e+03
      -7.72361572e+03 3.65108325e+03 1.99546914e+04 1.23197852e+04
      9.19241504e+03 -2.03036621e+04 6.70353882e+02 9.16000879e+03
      1.63918340e+04 -7.22142676e+03 9.75284863e+03 -1.77692383e+04
      -3.77194189e+03 -8.88316211e+03 -3.00494946e+03 1.45052305e+04
      -6.03349658e+03 3.04811890e+02 1.06493805e+05 5.52773340e+03
      -9.57575977e+03 -2.20776543e+04 3.57565508e+04 -1.62920752e+03
      1.67316094e+04 -3.15246729e+03 2.03081562e+04 3.61217578e+04
      6.32061328e+04 -5.62134102e+04 7.56245789e+02 -2.15066875e+04
      1.29100127e+04 4.39956201e+03 -9.52162695e+03 4.67355743e+02
      4.25876416e+03 7.89276367e+03 -4.33061182e+03 4.88840625e+03
      -8.99564355e+03 -1.49485486e+03 -4.70563623e+03 -8.17285156e+02
      6.69710303e+03 -2.90761060e+03 2.92301392e+02 2.09542734e+04
      -1.47573816e+03 -8.48957129e+03 -1.74233340e+04 8.92335840e+03
      -1.06012559e+04 1.97681484e+04 4.74500977e+03 1.16055742e+04
      1.01445068e+03 -1.49905967e+04 5.69402002e+03 -2.11204834e+01
      5.27537012e+03 -5.93982617e+03 3.57639453e+03 -5.73131006e+03
      2.58563745e+03 -8.03158838e+03 -8.63216797e+03 -1.62384756e+04
      1.25973896e+04 2.60117651e+03 3.80411719e+03 -2.53924878e+03
      2.02277734e+04 5.55991748e+03 3.48701636e+03 4.11105286e+02
      4.24940820e+03 1.02486338e+04 1.74506016e+04 -1.81349434e+04
      7.30508008e+03 -7.19838867e+03 6.77653027e+03 1.59514180e+04
      -1.02013242e+04 9.59975684e+03 -1.91390762e+04 -7.12553662e+03
      -1.63083594e+04 4.77712305e+03 1.35517939e+04 -2.82620386e+03
      -4.63374451e+02 1.32395527e+04 -8.01014502e+03 1.82049531e+04
      7.74447314e+03 2.11608633e+04 -1.36730498e+04 -6.65303125e+03
      -4.75046814e+02 1.84617944e+03 6.86869775e+03 -1.41171641e+04
      -4.73610791e+03 -1.21308174e+04 4.82541650e+03 7.17778857e+03
      -1.87854968e+03 -1.22954224e+03 3.09326699e+04 1.41239932e+04
      3.24962852e+04 -1.71076582e+04 -1.40258184e+04 1.03930432e+03
      4.19238623e+03 1.63058164e+04 2.74423535e+04 -1.95616250e+04
      -5.85463184e+03 -6.14047949e+03 5.35198438e+03 5.34144023e+04
      -3.80515234e+04 -1.17616416e+04 -9.02213184e+03 8.49746484e+03
      3.19965254e+04 2.14644116e+03 1.00072021e+04 -6.56901318e+03
      1.26787480e+04 -2.44663477e+03 4.27014404e+02 5.46000439e+03
      -2.25348364e+03 3.00590479e+03</_>
    <_>
      8.54913770e+03 -9.82876562e+03 -9.24617578e+03 -2.94330859e+03
      -5.77281738e+03 -3.18305249e+03 -3.61781177e+03 6.83483594e+03
      -1.53832996e+03 -9.63685059e+03 -8.24287891e+03 7.42428271e+03
      -3.78726465e+03 6.79789160e+03 -7.31209473e+02 5.13545410e+03
      -1.99844971e+03 -7.34693262e+03 1.68377405e+03 -3.76980176e+03
      3.92585938e+04 1.11301875e+04 1.51557988e+04 2.14291621e+04
      3.24007559e+04 8.96984082e+03 -2.06339863e+04 -2.85003687e+03
      3.34966562e+04 1.81038555e+04 3.73907886e+03 2.90570972e+03
      -2.47031342e+02 1.82546118e+03 8.75027441e+03 -1.78689375e+04
      2.23629473e+04 -5.89301025e+03 8.70547852e+03 2.51034004e+04
      1.65919446e+03 1.73984160e+04 -1.47020947e+04 9.13102832e+03
      -1.94295078e+04 8.52913379e+03 1.71470469e+04 2.30126289e+04
      -1.69481836e+04 1.00860254e+04 -2.12666855e+04 -1.05215312e+04
      -2.70027305e+04 1.41256680e+04 2.23589434e+04 4.50277924e+02
      4.94107471e+03 7.42407373e+03 8.06461230e+03 1.88416523e+04
      3.09394556e+03 -7.25703613e+03 -3.10769458e+03 1.05461602e+04
      4.48021338e+03 4.27738037e+03 5.28536743e+02 1.61062024e+03
      2.62671997e+03 8.40787402e+03 -1.10810312e+04 6.05230469e+03
      -3.73999536e+03 2.28913892e+03 2.06306113e+04 6.96242822e+03
      9.03430762e+03 -2.06685820e+04 2.79721533e+03 2.15887324e+04
      1.98176504e+04 -4.52216797e+03 6.58886719e+03 -1.14730176e+04
      -6.60865381e+03 -1.00537988e+04 -2.01946387e+03 2.19837891e+04
      -2.69362207e+03 4.78378125e+03 6.37461914e+04 1.06445996e+03
      -3.46805957e+03 -1.53402754e+04 1.45732529e+04 -6.58116211e+03
      2.29334297e+04 -6.00509863e+03 2.02627129e+04 1.72863457e+04
      4.43468711e+04 -4.04873711e+04 -2.59887329e+03 -1.10759902e+04
      2.74323804e+03 4.25262695e+03 -9.39465527e+03 1.94878357e+03
      9.63601367e+03 9.59960547e+03 -3.94541089e+03 3.54496265e+03
      -6.62018457e+03 -3.16921436e+03 -6.55264795e+03 9.67294617e+02
      1.01095088e+04 -9.86619385e+02 2.39776587e+03 2.12810234e+04
      -3.93439771e+03 -2.18228496e+04 -2.14450371e+04 7.15641309e+03
      -7.55570264e+03 1.36619082e+04 7.50808398e+03 1.34607100e+04
      -6.88747742e+02 -2.28243750e+04 2.04611768e+03 -4.94408154e+03
      4.92680762e+03 2.07596802e+03 6.80069141e+03 -8.03122217e+03
      3.26317944e+03 -8.31727930e+03 -5.75606543e+03 -1.44581475e+04
      1.07238330e+04 6.10827295e+03 2.32874146e+03 9.25698181e+02
      3.33714805e+04 2.24862812e+04 -3.07862085e+03 4.88493848e+03
      -6.41449170e+03 -3.92696777e+03 -4.94460449e+03 -6.48945605e+03
      2.63060449e+04 -2.64838721e+03 9.13812012e+03 2.42681074e+04
      -1.22823330e+04 8.83464160e+03 -1.71444746e+04 -9.99292871e+03
      -2.12616094e+04 7.60557129e+03 2.47111426e+04 4.06235580e+01
      5.63087012e+03 1.78075898e+04 -7.41866602e+03 1.74036504e+04
      7.09699072e+03 2.48985664e+04 -1.89122168e+04 -9.16362695e+03
      -2.47002466e+03 -2.04710425e+03 4.56508789e+03 -9.48197754e+03
      -4.04133179e+03 -1.11240186e+04 5.96477441e+03 7.77175293e+03
      2.21914749e+01 1.17656189e+03 2.11971562e+04 9.87913477e+03
      2.73196797e+04 -1.72136836e+04 -1.47471143e+04 -1.19164893e+03
      -1.86930542e+03 9.16061719e+03 1.73511191e+04 -1.07935830e+04
      -9.99208594e+03 -2.81389478e+03 -4.24265930e+02 4.39789648e+04
      -3.17504414e+04 -1.84227930e+04 -6.04617139e+03 -1.92915674e+03
      2.79202344e+04 4.41716455e+03 6.11223486e+03 -3.62210449e+02
      2.71332852e+04 -5.89193726e+02 6.74866064e+03 2.68203589e+03
      -7.04313110e+02 3.20411548e+03</_>
    <_>
      1.50675469e+04 -2.01130391e+04 -6.79214404e+03 -9.09222168e+03
      -6.24227051e+03 -2.50914062e+04 -4.08510156e+03 6.86458740e+03
      3.42072266e+03 -1.31529512e+04 -5.70154346e+03 5.11579004e+03
      -3.41037671e+03 3.37978149e+03 -9.64820996e+03 -8.34315430e+03
      8.76421875e+03 -4.29622510e+03 6.62216016e+03 -5.59643799e+03
      5.06658203e+04 4.61865430e+03 2.32809121e+04 1.79906504e+04
      6.56651719e+04 8.04088135e+03 -1.65091641e+04 -1.11890596e+04
      3.39108008e+04 9.97931445e+03 7.01855908e+03 1.52276648e+03
      6.17969189e+03 1.78089336e+04 3.14522402e+04 -3.36414922e+04
      1.27066885e+04 -1.37200098e+04 1.07384482e+04 1.92216504e+04
      1.16483850e+03 1.27831299e+04 -1.11420908e+04 6.89916748e+03
      -1.44311953e+04 6.10534912e+03 8.21992480e+03 1.62065781e+04
      -1.38662383e+04 8.69728125e+03 -1.84839062e+04 -7.67905273e+03
      -2.10833516e+04 1.12487227e+04 1.44487119e+04 -4.09403229e+02
      1.99527954e+03 1.14882285e+04 8.28516699e+03 3.31628906e+04
      3.60803516e+03 -7.41234033e+03 -6.04665869e+03 1.44077891e+04
      3.58063843e+03 4.23973193e+03 6.02697083e+02 3.27836499e+03
      9.11270410e+03 1.65832715e+04 -1.72742285e+04 4.66987109e+03
      -7.07705273e+03 4.43094238e+03 1.61925566e+04 1.26401807e+04
      7.19460645e+03 -1.60377871e+04 3.30918182e+02 1.53765957e+04
      1.38914678e+04 -3.02463843e+03 5.51461377e+03 -8.99940820e+03
      -2.20606226e+03 -3.67713013e+03 -4.93642725e+03 1.48990996e+04
      -4.15922363e+03 3.34009961e+03 1.08641641e+05 5.00876367e+03
      -9.19580273e+03 -2.30127305e+04 3.57684766e+04 -2.99257495e+03
      2.08088848e+04 -4.56183594e+03 2.34359297e+04 3.57031367e+04
      6.63825312e+04 -5.92158008e+04 5.60566650e+02 -2.13967832e+04
      1.23230195e+04 3.47549561e+03 -7.43057959e+03 5.10079071e+02
      7.00404199e+03 6.84636475e+03 -3.02435303e+03 3.08013525e+03
      -5.32927246e+03 -7.48385254e+02 -2.86380322e+03 -1.10613562e+03
      6.78065527e+03 -1.93709412e+03 1.75426758e+03 1.63796270e+04
      -1.33331006e+03 -1.48097656e+04 -1.50018203e+04 5.31315283e+03
      -6.38994531e+03 1.10729756e+04 3.08023291e+03 6.80463037e+03
      2.39091748e+03 -1.52326992e+04 3.56966479e+03 -3.19352148e+03
      5.69814697e+03 -4.63493604e+03 4.09315649e+03 -6.70793311e+03
      2.57471460e+03 -8.08893359e+03 -8.47836133e+03 -1.69840312e+04
      1.35226846e+04 3.16981738e+03 4.08321899e+03 -1.79088171e+03
      2.56839785e+04 1.17263799e+04 1.49343628e+03 2.75613550e+03
      -1.84407333e+02 7.49855762e+03 1.28446826e+04 -1.75133125e+04
      1.38751689e+04 -7.70272949e+03 7.77849902e+03 1.57132725e+04
      -9.06617383e+03 7.10674561e+03 -1.39395635e+04 -6.28250049e+03
      -1.45151494e+04 4.89438525e+03 1.50478818e+04 -1.05361560e+03
      2.42897217e+03 1.53084756e+04 -6.70127295e+03 1.59350127e+04
      6.32020947e+03 2.17804902e+04 -1.67455430e+04 -5.63439355e+03
      -2.03367822e+03 -1.54418137e+02 4.24157764e+03 -8.85698340e+03
      -3.10162402e+03 -9.40977637e+03 5.03551709e+03 5.77845703e+03
      -3.74626038e+02 5.35115295e+02 2.05704258e+04 1.06763818e+04
      2.72281504e+04 -1.79185527e+04 -1.09967832e+04 -1.90842346e+03
      5.50144531e+02 1.54975000e+04 2.52962676e+04 -1.87354453e+04
      -6.03422510e+03 -6.87116797e+03 4.02384326e+03 5.19479492e+04
      -4.00938906e+04 -1.11314395e+04 -1.10319189e+04 5.28394775e+03
      3.50393672e+04 1.76333179e+03 1.05266777e+04 -5.41840918e+03
      1.60354473e+04 -1.50006116e+03 2.99121729e+03 4.95012988e+03
      -2.82662598e+03 3.02948438e+03</_>
    <_>
      1.36245117e+04 -7.28518652e+03 -8.32087891e+03 -3.23513062e+03
      -1.49043823e+03 -8.11736523e+03 -2.60216846e+03 3.10248853e+03
      1.16000328e+02 -4.27060400e+03 -4.26009863e+03 1.10189404e+04
      -4.64024463e+03 8.22925586e+03 -6.33526172e+03 1.87544104e+03
      -2.05481348e+03 -8.06823547e+02 3.84137476e+03 -3.42166211e+03
      3.79039375e+04 3.45502881e+03 1.60927334e+04 1.76682812e+04
      4.09271836e+04 6.62580469e+03 -1.57438760e+04 -6.36397656e+03
      2.90162012e+04 1.10378320e+04 1.01312539e+04 -1.00974319e+02
      6.47236279e+03 5.77259912e+03 1.90552520e+04 -24415.
      1.60718760e+04 -7.24725684e+03 7.34569385e+03 2.02489922e+04
      3.36184131e+03 1.44711758e+04 -4.93516504e+03 7.71078564e+03
      -1.61059990e+04 4.45867236e+03 3.73981177e+03 1.58390742e+04
      -1.48928174e+04 1.08439424e+04 -2.21291289e+04 -5.97261865e+03
      -1.94778066e+04 8.93964453e+03 1.21059639e+04 -2.98121240e+03
      1.67165794e+01 9.06242090e+03 1.09226270e+04 2.19375508e+04
      4.21576855e+03 -9.96572559e+03 -3.62778247e+03 1.00661064e+04
      5.96401172e+03 4.11095410e+03 1.96501685e+03 -8.39669678e+02
      2.30175708e+03 8.24153906e+03 -1.25169707e+04 7.03236621e+03
      -5.02243066e+03 1.48163501e+03 2.31616211e+04 1.57756943e+04
      9.26054980e+03 -2.22537578e+04 -3.97937897e+02 1.33199092e+04
      1.70176914e+04 3.85206055e+02 7.48347607e+03 -1.23911895e+04
      -6.36825293e+03 -4.68422803e+03 -8.66305566e+03 1.80144141e+04
      -5.35200244e+03 7.61186295e+01 6.50075000e+04 5.29944531e+03
      -1.27478252e+04 -1.34567969e+04 2.32974082e+04 3.06800928e+03
      1.76192695e+04 -1.82572034e+03 1.24688574e+04 1.47239570e+04
      3.73288750e+04 -3.87984883e+04 6.89479102e+03 -1.25143799e+04
      5.08752148e+03 4.10888623e+03 -9.30636621e+03 3.52790283e+02
      4.95056836e+03 7.64046191e+03 -2.55048218e+03 4.08947998e+03
      -7.31902490e+03 -2.16815308e+03 -3.88641821e+03 -1.62701489e+03
      7.18383447e+03 -2.43484497e+03 2.64749298e+02 2.18772598e+04
      -4.42810028e+02 -1.19882158e+04 -1.74468203e+04 2.67276709e+03
      -8.46798438e+03 1.47473906e+04 6.32266064e+03 7.52040918e+03
      5.74425244e+03 -1.73956836e+04 5.13288916e+03 -6.07738647e+01
      3.48601025e+03 -2.63169727e+03 2.46839551e+03 -5.72133350e+03
      1.96759460e+03 -5.68311084e+03 -3.98873706e+03 -1.04832402e+04
      8.92049316e+03 1.43757776e+03 2.09319019e+03 -5.38596985e+02
      2.56574258e+04 1.03302480e+04 7.10284619e+03 -8.51044861e+02
      5.68208838e+03 1.47345459e+03 1.00902227e+04 -1.47750898e+04
      1.55606592e+04 -3.16065674e+03 6.97849707e+03 1.58765684e+04
      -6.42110791e+03 7.77714355e+03 -1.45487617e+04 -6.37744434e+03
      -1.17383145e+04 7.63087891e+02 1.52375557e+04 -2.80850757e+03
      9.09111389e+02 2.07998613e+04 -8.60624707e+03 1.96987773e+04
      1.41948022e+03 2.10415977e+04 -1.85226309e+04 7.22595596e+01
      2.07644821e+02 2.39018555e+02 6.51167578e+03 -1.32144473e+04
      -2.71045361e+03 -1.03341494e+04 4.71591016e+03 4.78693799e+03
      -2.18696436e+03 -1.06888574e+03 2.81760586e+04 7.10824023e+03
      2.55455488e+04 -1.48347373e+04 -7.97785840e+03 2.83092383e+03
      2.93250806e+03 9.92977734e+03 1.31445303e+04 -6.75913525e+03
      -6.90201367e+03 -2.54728247e+03 2.58695557e+03 3.56367891e+04
      -2.69995391e+04 -6.43617969e+03 -3.76695874e+03 3.41369409e+03
      2.72945195e+04 -4.22523193e+03 5.69613232e+03 -2.28207593e+03
      1.76227441e+04 -2.17845532e+03 2.10960742e+03 3.64283301e+03
      -4.84538757e+02 3.14505005e+03</_>
    <_>
      1.62935034e+03 -2.78057324e+03 -2.74162744e+03 -1.16811987e+03
      -2.59939526e+03 -1.32669312e+03 -1.27134985e+03 2.69878540e+03
      -3.13374329e+02 -2.52531519e+03 -2.59559497e+03 1.41263123e+03
      -1.22155640e+03 2.18282764e+03 3.60359863e+02 1.46302942e+03
      -8.94880390e+00 -2.55302319e+03 6.60781921e+02 -6.81100464e+02
      3.36181250e+04 -2.01206140e+03 1.65238145e+04 1.59540635e+04
      4.53242617e+04 5.13705371e+03 -1.32102754e+04 -8.75031348e+03
      2.24677754e+04 6.05334570e+03 1.54788447e+04 -1.57346777e+03
      9.74475977e+03 6.71822705e+03 2.49734785e+04 -2.90228906e+04
      1.10064287e+04 -7.95419043e+03 4.29986621e+03 1.06798955e+04
      -1.57769373e+03 5.24994092e+03 -1.23202480e+04 3.10446411e+03
      -6.23144971e+03 4.51235693e+03 1.55803503e+03 7.85652100e+03
      -9.01290332e+03 4.76163965e+03 -1.11577891e+04 -5.40782861e+03
      -1.48165449e+04 9.93844922e+03 6.78526270e+03 7.46793945e+02
      5.54746643e+02 8.30915625e+03 7.65646045e+03 2.32342383e+04
      2.39263452e+03 -6.19314404e+03 -4.62346973e+03 1.07279785e+04
      2.40175171e+03 8.19668945e+03 -1.01703827e+03 5.31308447e+03
      3.66911328e+03 1.32258037e+04 -1.49418496e+04 4.94320459e+03
      -4.11128223e+03 2.02776953e+03 1.17176865e+04 1.61042354e+04
      4.53929883e+03 -1.06736318e+04 -1.88549268e+03 1.22851748e+04
      7.63408105e+03 3.08755078e+03 1.94865771e+03 -1.58682874e+03
      2.00742931e+01 4.13717383e+03 -9.20993066e+03 9.87143262e+03
      -3.82117407e+03 2.45423755e+03 7.11903984e+04 3.93116626e+03
      -1.14788896e+04 -1.57553125e+04 2.71339512e+04 1.98655655e+02
      2.83966387e+04 -6.30426416e+03 2.25454883e+04 1.41413701e+04
      4.64885547e+04 -4.71231953e+04 7.70199170e+03 -1.15875244e+04
      5.02806738e+03 1.92414929e+03 -4.36398438e+03 -6.66367874e+01
      4.34752832e+03 3.57358765e+03 -1.48104431e+02 1.26277136e+03
      -1.93860803e+03 -6.20850586e+02 -4.38423309e+02 -1.88619287e+03
      4.11613525e+03 -1.16547620e+03 8.90675598e+02 1.01367207e+04
      7.98414062e+02 -1.07379189e+04 -8.02665479e+03 -9.39868530e+02
      -2.53013037e+03 3.24770386e+03 9.48447876e+02 -9.18420166e+02
      6.16482617e+03 -9.43797559e+03 2.90137329e+03 -2.05921948e+03
      3.87574414e+03 -4.60768799e+03 1.65240710e+03 -7.12996484e+03
      2.14920386e+03 -6.47266260e+03 -3.76412280e+03 -1.17006631e+04
      1.07701943e+04 2.74597054e+01 2.34058325e+03 -8.02043701e+02
      1.60501123e+04 6.45358398e+03 8.10514355e+03 1.66264832e+02
      3.71927539e+03 2.91230249e+03 1.27795107e+04 -1.69555391e+04
      9.56252832e+03 -5.01033447e+03 3.14162915e+03 8.00637744e+03
      -3.65370435e+03 3.47885376e+03 -6.51889600e+03 -3.05009229e+03
      -6.23730566e+03 1.19932117e+03 7.87877832e+03 -7.96194092e+02
      1.17048584e+03 1.38661211e+04 -4.41398047e+03 1.26503428e+04
      6.70900293e+03 2.18182344e+04 -1.98582109e+04 -3.17923523e+02
      -4.08844849e+03 1.37146838e+03 2.23308398e+03 -5.21127734e+03
      -2.52674609e+03 -7.07829932e+03 4.93236133e+03 2.68802124e+03
      5.57654907e+02 4.57709618e+01 1.35040049e+04 6.89931104e+03
      2.05115332e+04 -1.65208320e+04 -4.15750879e+03 -2.54963892e+03
      5.21826416e+02 4.22681738e+03 1.16394932e+04 -9.70923145e+03
      -1.69364954e+03 -1.99596716e+03 6.15547241e+02 3.57607383e+04
      -3.21396309e+04 -1.39741418e+03 -6.63223682e+03 2.23675732e+03
      3.17852949e+04 -3.68240820e+03 7.24759375e+03 -2.94777563e+03
      9.21098535e+03 -2.33995801e+03 1.98128613e+03 2.33138599e+03
      -1.11935486e+03 8.03762329e+02</_>
    <_>
      2.38567212e+03 -1.45202173e+03 -2.72166284e+03 -4.16771301e+02
      -1.16946790e+03 1.58308121e+02 -8.90133179e+02 1.54833716e+03
      -5.88679016e+02 -1.51337024e+03 -1.98163550e+03 2.66261060e+03
      -1.27818140e+03 2.51015112e+03 -1.51913696e+02 2.13039307e+03
      -1.35979089e+03 -1.42199695e+03 4.07348175e+02 -7.27202271e+02
      7.02878516e+03 1.86426025e+03 2.94378442e+03 4.10149658e+03
      6.42858154e+03 1.67090771e+03 -3.93443652e+03 -6.96864136e+02
      5.73930273e+03 3.22619092e+03 1.02784973e+03 5.95653687e+02
      -6.15470009e+01 2.85955902e+02 1.90288477e+03 -3.73273486e+03
      3.90244312e+03 -1.14976721e+03 1.26552173e+03 8.08229492e+03
      3.91808563e+02 5.34694775e+03 -4.88138232e+03 2.86246191e+03
      -6.01307666e+03 2.58746924e+03 3.43345898e+03 6.73385352e+03
      -5.76954492e+03 3.66590161e+03 -7.72546436e+03 -3.26061011e+03
      -8.93109570e+03 4.79176953e+03 6.03625586e+03 -9.15409775e+01
      7.71058838e+02 1.50137866e+03 1.77903210e+03 3.68406274e+03
      6.65504028e+02 -1.59378735e+03 -6.02126099e+02 2.03404993e+03
      9.67408142e+02 9.33890564e+02 1.48807602e+02 2.22471481e+02
      3.68054352e+02 1.56600793e+03 -2.22690625e+03 1.30490674e+03
      -7.46976318e+02 3.71528931e+02 5.72603662e+03 2.99763367e+02
      2.54899072e+03 -5.80225244e+03 1.07026233e+03 4.34093701e+03
      5.41902344e+03 -1.91207971e+03 2.33216919e+03 -4.41171729e+03
      -2.38782251e+03 -4.17217676e+03 4.97690552e+02 5.65143604e+03
      -6.49287170e+02 6.45024841e+02 1.37568398e+04 -4.38079773e+02
      6.03956238e+02 -3.59858423e+03 2.66615967e+03 -2.69890527e+03
      6.19162402e+03 -2.22947949e+03 6.16254053e+03 4.01615527e+03
      1.09660010e+04 -9.28066504e+03 -1.50915515e+03 -2.09340308e+03
      5.66025452e+02 1.22555835e+03 -2.68967969e+03 6.84181946e+02
      1.92596960e+03 2.68596289e+03 -1.49150317e+03 1.27279980e+03
      -2.50369312e+03 -1.12073340e+03 -2.51830078e+03 7.94221375e+02
      2.62319971e+03 -2.53032684e+02 3.56699249e+02 6.04525977e+03
      -1.38824731e+03 -4.43125879e+03 -5.92852344e+03 2.72556104e+03
      -2.66002490e+03 5.12785791e+03 2.61446289e+03 5.16391113e+03
      -1.26039563e+03 -5.91868066e+03 5.08729034e+02 -6.97664185e+02
      1.22856909e+03 3.71180511e+02 1.96814905e+03 -2.32747314e+03
      1.14883301e+03 -2.68933374e+03 -1.45707202e+03 -3.90094629e+03
      2.70700464e+03 1.62297278e+03 4.12161438e+02 9.94702301e+01
      5.57335547e+03 4.34540625e+03 -6.55528931e+02 1.24008020e+03
      -1.78244458e+03 -9.90885986e+02 -1.26319775e+03 -1.23894995e+03
      4.78616406e+03 -5.26568298e+02 1.24349561e+03 6.40160596e+03
      -3.96792310e+03 2.96782910e+03 -5.92613135e+03 -2.98555493e+03
      -6.77540234e+03 2.77978052e+03 6.05815723e+03 -7.79209824e+01
      7.93686218e+02 5.82763965e+03 -2.73663574e+03 6.15195459e+03
      1.97093604e+03 7.71112549e+03 -5.59889111e+03 -2.78858057e+03
      -3.58254333e+02 -4.43658661e+02 1.73877417e+03 -3.64879419e+03
      -1.42004944e+03 -4.08730273e+03 2.23679468e+03 2.52568359e+03
      -7.19927750e+01 2.38435593e+02 7.95512891e+03 3.21572974e+03
      9.35900684e+03 -5.64469873e+03 -4.94697852e+03 -4.20732155e+01
      -3.80348175e+02 2.51225610e+03 4.74564404e+03 -2.60505493e+03
      -2.88511841e+03 -5.12560181e+02 7.76165390e+01 1.27712363e+04
      -8.53896680e+03 -5.58697949e+03 -1.00886816e+03 -2.39707199e+02
      6.99196094e+03 1.69923682e+03 1.07587622e+03 -5.56149101e+01
      6.18887354e+03 -2.18772568e+02 8.61799622e+02 5.80690247e+02
      -1.66609467e+02 4.58788086e+02</_>
    <_>
      2.52465840e+04 -2.61211133e+04 -1.81896973e+04 -1.11262725e+04
      -1.14530479e+04 -2.52261504e+04 -7.87424219e+03 1.35142100e+04
      1.23890015e+03 -1.89434590e+04 -1.39094131e+04 1.62468926e+04
      -8.93845215e+03 1.42235312e+04 -1.03953818e+04 3.07367157e+02
      3.32956812e+03 -1.01497002e+04 8.77354785e+03 -8.48609375e+03
      2.17122750e+05 -1.22752021e+04 1.01585227e+05 9.34027891e+04
      2.82148438e+05 3.08291426e+04 -7.73420703e+04 -5.33813789e+04
      1.49851391e+05 3.71560195e+04 9.16119766e+04 -1.21520947e+04
      6.52150977e+04 4.76384180e+04 1.57397750e+05 -1.77651312e+05
      6.90303828e+04 -4.86268203e+04 3.35998047e+04 6.01482969e+04
      -6.88025879e+03 2.92722871e+04 -6.23542930e+04 1.76654590e+04
      -3.58288398e+04 2.33883086e+04 3.93897070e+03 4.43210547e+04
      -5.29066602e+04 2.93055898e+04 -6.59586641e+04 -2.78055391e+04
      -8.09576250e+04 5.30937422e+04 3.40679102e+04 2.55731641e+03
      4.81627594e+02 5.27087656e+04 4.80148086e+04 1.46858266e+05
      1.58155400e+04 -3.96306328e+04 -2.89525801e+04 6.38631797e+04
      1.56303682e+04 4.66243164e+04 -3.88660864e+03 2.81335645e+04
      2.47056270e+04 8.08287578e+04 -9.18385469e+04 2.90529512e+04
      -2.73597461e+04 1.20835625e+04 7.24426328e+04 1.02059797e+05
      2.75551465e+04 -6.64293750e+04 -1.32590479e+04 6.85226797e+04
      4.60389688e+04 2.21303047e+04 1.27472568e+04 -1.02158008e+04
      -1.25337317e+03 2.78060840e+04 -6.07172500e+04 5.70376367e+04
      -2.33770059e+04 1.03741123e+04 4.45638031e+05 2.85339180e+04
      -7.57209297e+04 -9.62200781e+04 1.66422531e+05 6.07340527e+03
      1.57979219e+05 -3.10461953e+04 1.22631555e+05 9.42839375e+04
      2.79678531e+05 -2.84412500e+05 4.69541602e+04 -7.75767969e+04
      3.37764688e+04 1.15985752e+04 -2.66363496e+04 -1.84969946e+03
      2.38624199e+04 2.09237793e+04 -1.83007675e+02 8.21249512e+03
      -1.20094541e+04 -2.48474951e+03 9.99085236e+01 -1.42139062e+04
      2.27804570e+04 -8.05764014e+03 3.95879321e+03 6.31405703e+04
      7.05226221e+03 -5.89522930e+04 -4.79214883e+04 -8.45879785e+03
      -1.65923965e+04 2.09733438e+04 5.99620654e+03 -8.83602539e+03
      4.22411367e+04 -5.41921445e+04 1.89083926e+04 -8.44887207e+03
      2.29549707e+04 -2.77460684e+04 8.21145020e+03 -3.94199141e+04
      1.09027051e+04 -3.45827617e+04 -2.34432656e+04 -6.81823516e+04
      6.35972305e+04 -6.83512451e+02 1.56073018e+04 -5.25382275e+03
      1.14302945e+05 3.77268750e+04 5.28843125e+04 -5.73486182e+03
      3.68378086e+04 2.20072871e+04 8.54560391e+04 -1.05019578e+05
      6.15018750e+04 -2.73834180e+04 2.73844238e+04 4.67398438e+04
      -1.85150430e+04 2.01386348e+04 -3.66755156e+04 -1.76312617e+04
      -3.30901641e+04 3.15785352e+03 4.59770977e+04 -5.35634229e+03
      5.94053125e+03 8.68752266e+04 -2.80747012e+04 7.72061016e+04
      3.21262070e+04 1.23897734e+05 -1.15596477e+05 5.36896289e+03
      -2.09425566e+04 8.55555371e+03 1.61437393e+04 -3.57530312e+04
      -1.30612578e+04 -4.06757031e+04 2.70332344e+04 1.20998877e+04
      7.22377686e+02 -2.82083472e+03 8.77751562e+04 3.78265898e+04
      1.18268578e+05 -9.31784375e+04 -1.57617412e+04 -1.11023486e+04
      1.01480469e+04 3.34780312e+04 7.21015625e+04 -5.77791602e+04
      -1.13624033e+04 -1.56261426e+04 8.05157373e+03 2.10176359e+05
      -1.88836172e+05 -2.67860474e+03 -4.17971055e+04 1.88781113e+04
      1.89285500e+05 -2.68086523e+04 4.57998203e+04 -1.93363945e+04
      5.56929102e+04 -1.11290537e+04 1.21142490e+04 1.65220156e+04
      -5.72998926e+03 9.42293359e+03</_>
    <_>
      1.06095762e+04 -1.00131816e+04 -1.58494453e+04 -3.21453320e+03
      -1.01012676e+04 8.67123840e+02 -5.91134326e+03 1.16477412e+04
      -3.49290088e+03 -1.07398623e+04 -1.33053008e+04 1.23634473e+04
      -7.11759668e+03 1.38739980e+04 1.94260034e+03 1.26486758e+04
      -6.12717432e+03 -1.15190098e+04 2.06598486e+03 -3.79029492e+03
      3.01395469e+04 2.17711543e+04 1.23294600e+04 2.66136660e+04
      1.61626309e+04 1.17205088e+04 -2.63296191e+04 1.81824329e+03
      2.77795664e+04 2.41594102e+04 -5.56400879e+03 8.62090527e+03
      -1.43220088e+04 -5.28816797e+03 -8.71284082e+03 -5.62095752e+03
      2.67832090e+04 -5.58284424e+03 6.61306348e+03 4.47838281e+04
      6.29527930e+03 3.46087930e+04 -1.73261836e+04 1.75270801e+04
      -3.75859844e+04 1.30511279e+04 2.91708965e+04 4.09315117e+04
      -2.76995156e+04 1.90048223e+04 -3.90567461e+04 -1.77737031e+04
      -4.42116484e+04 1.98067402e+04 3.96410820e+04 -1.76112988e+03
      7.25232959e+03 5.48183691e+03 9.62904297e+03 9.70422559e+03
      4.10428027e+03 -9.23133594e+03 -3.68612122e+02 1.04686641e+04
      7.65325342e+03 2.11233273e+01 2.34039404e+03 -3.31862817e+03
      -8.02455017e+02 9.91717911e+01 -4.76927100e+03 9.06183594e+03
      -2.63179346e+03 2.46361499e+03 3.41687461e+04 -2.57660767e+03
      1.55950068e+04 -3.49003906e+04 8.13823096e+03 3.00471133e+04
      3.47757422e+04 -1.48517471e+04 1.40345820e+04 -2.74442578e+04
      -1.48082197e+04 -2.87169805e+04 7.05233984e+03 3.68687656e+04
      -3.35842285e+03 6.60961230e+03 4.04160625e+04 -2.83313306e+03
      5.61783203e+03 -1.13045459e+04 4.84732422e+03 -1.19945352e+04
      1.92472637e+04 -7.96850635e+03 2.05697344e+04 1.37537656e+04
      3.48458945e+04 -2.72330938e+04 -8.09532861e+03 -6.26059375e+03
      1.49982947e+03 7.55276514e+03 -1.64434883e+04 4.44290576e+03
      1.37968535e+04 1.69149805e+04 -9.04015723e+03 7.24513086e+03
      -1.44624014e+04 -6.87057520e+03 -1.52874111e+04 4.95451807e+03
      1.71386758e+04 -1.37541956e+03 3.22784814e+03 3.64430234e+04
      -9.41246875e+03 -3.06995449e+04 -3.72645859e+04 1.81579375e+04
      -1.55279893e+04 3.06331836e+04 1.57909160e+04 3.26967930e+04
      -9.70609277e+03 -3.82031328e+04 2.84605054e+03 -6.75429248e+03
      5.01409863e+03 5.62669531e+03 1.13098018e+04 -9.56255469e+03
      5.60693604e+03 -1.23616729e+04 -6.55335645e+03 -1.61827646e+04
      9.29092188e+03 1.02990469e+04 8.42631592e+02 1.31286096e+03
      2.89424863e+04 3.01872227e+04 -1.17745566e+04 1.17743115e+04
      -2.19794688e+04 -1.03472822e+04 -2.04699473e+04 2.22903271e+03
      3.19869004e+04 -4.03877783e+03 6.73207471e+03 3.97849453e+04
      -2.27660332e+04 1.73048496e+04 -3.46231289e+04 -1.74118633e+04
      -3.87213203e+04 1.46142412e+04 3.92013750e+04 -1.76020862e+03
      6.69157324e+03 2.31446621e+04 -1.24614805e+04 2.65464727e+04
      9.63174805e+03 3.16817285e+04 -1.91479785e+04 -1.89740234e+04
      -5.06659851e+02 -3.71051001e+03 8.27695996e+03 -1.68712754e+04
      -7.36915576e+03 -1.91379824e+04 8.95278223e+03 1.62077979e+04
      -5.33855591e+02 2.86965332e+03 3.53434961e+04 1.58453398e+04
      4.14300469e+04 -2.09197051e+04 -3.23027207e+04 4.64622894e+02
      -5.56917090e+03 1.13463643e+04 2.14563184e+04 -1.00354238e+04
      -1.75430664e+04 -1.13513989e+03 -1.53547449e+03 5.30645273e+04
      -2.96695039e+04 -3.55730039e+04 -2.03627466e+03 -4.76646143e+03
      2.13748164e+04 1.13621699e+04 2.86359082e+03 1.07788684e+03
      4.07278203e+04 -2.73583740e+03 7.10813867e+03 1.87541492e+03
      -1.40639661e+03 2.09337866e+03</_>
    <_>
      1.24663057e+04 -1.49759805e+04 -5.59967383e+03 -7.20016113e+03
      -4.66682666e+03 -2.00853379e+04 -3.20528369e+03 5.26466748e+03
      2.85011816e+03 -9.03539844e+03 -4.23278223e+03 4.82599902e+03
      -3.16319043e+03 3.58364282e+03 -8.03415039e+03 -6.41061328e+03
      6.62153369e+03 -2.52468994e+03 5.56825439e+03 -4.02700293e+03
      4.06628594e+04 3.64458569e+03 1.87890371e+04 1.53435498e+04
      5.23601289e+04 6.60342871e+03 -1.40117939e+04 -8.96183398e+03
      2.72963223e+04 8.57224121e+03 6.49092188e+03 1.25884131e+03
      4.99898389e+03 1.32493223e+04 2.49304590e+04 -2.73964648e+04
      1.09686367e+04 -1.08000645e+04 8.17782959e+03 1.76079922e+04
      3.13277075e+03 1.40175107e+04 -4.68398633e+03 6.98000586e+03
      -1.51770146e+04 4.00329004e+03 4.20339209e+03 1.46699609e+04
      -1.15212559e+04 9.28316602e+03 -1.88426973e+04 -6.62297754e+03
      -1.72441660e+04 7.10284863e+03 1.20363867e+04 -2.25907568e+03
      -2.35873993e+02 9.80219531e+03 9.04355469e+03 2.61438926e+04
      3.92871436e+03 -8.40423438e+03 -4.42533838e+03 1.16095322e+04
      4.90587549e+03 2.49357544e+03 1.78223877e+03 1.44977894e+01
      5.91988379e+03 1.10478564e+04 -1.33766641e+04 5.45471484e+03
      -6.00323291e+03 3.04599902e+03 1.86388594e+04 1.30837822e+04
      7.99097510e+03 -1.83753438e+04 3.96800079e+01 1.15865869e+04
      1.47781523e+04 -3.04353882e+03 7.23497119e+03 -1.23322207e+04
      -3.80569458e+03 -5.23851172e+03 -5.36142236e+03 1.46999150e+04
      -4.96822363e+03 9.95982239e+02 8.19039766e+04 5.53133691e+03
      -1.07191045e+04 -1.64868086e+04 3.01628418e+04 1.50782507e+03
      1.39779199e+04 -1.90970447e+03 1.46481260e+04 2.54471934e+04
      4.70719648e+04 -4.40650586e+04 4.22265283e+03 -1.64672070e+04
      9.95592871e+03 3.65586792e+03 -8.11103613e+03 1.95883316e+02
      4.90034375e+03 6.77029395e+03 -2.69960400e+03 3.67495142e+03
      -6.45335547e+03 -1.25166772e+03 -3.03435254e+03 -1.56723682e+03
      6.24350244e+03 -2.35702686e+03 5.93655945e+02 1.84857891e+04
      -6.95232727e+02 -1.07781660e+04 -1.54132236e+04 4.85438330e+03
      -7.94601465e+03 1.39772041e+04 4.26385352e+03 7.43530908e+03
      3.47762549e+03 -1.46252080e+04 4.63911670e+03 -7.94145081e+02
      3.90316626e+03 -4.51074756e+03 2.45638306e+03 -4.59790381e+03
      1.90357922e+03 -5.89920068e+03 -6.08726025e+03 -1.19994170e+04
      9.60802051e+03 1.59947546e+03 2.83828760e+03 -1.77480359e+03
      2.02643516e+04 8.01493994e+03 3.63991919e+03 1.12170105e+03
      2.38713818e+03 6.25867969e+03 1.28730293e+04 -1.59210244e+04
      1.02338955e+04 -5.99116309e+03 5.86987354e+03 1.42738096e+04
      -6.93536377e+03 7.48639502e+03 -1.41216055e+04 -5.75527832e+03
      -1.16354424e+04 1.78583691e+03 1.29927949e+04 -2.39713745e+03
      4.24229187e+02 1.28319883e+04 -6.39996680e+03 1.45228154e+04
      4.22344482e+03 1.67599102e+04 -1.25130635e+04 -3.18426343e+03
      -4.24660614e+02 8.84832397e+02 5.20859375e+03 -1.04875947e+04
      -3.17683398e+03 -8.94036719e+03 3.60979028e+03 5.59215820e+03
      -1.43910938e+03 -5.53514771e+02 2.27372812e+04 9.45296484e+03
      2.37989668e+04 -1.31060391e+04 -1.00794668e+04 8.36274536e+02
      2.45490479e+03 1.25454639e+04 1.93414980e+04 -1.30581094e+04
      -5.38100098e+03 -4.56520654e+03 3.91513843e+03 3.94013203e+04
      -2.89602969e+04 -7.89133252e+03 -6.76630957e+03 5.84606934e+03
      2.62518594e+04 -1.14393823e+03 7.65815234e+03 -4.79557178e+03
      1.34753838e+04 -2.32865405e+03 1.12007092e+03 4.22317139e+03
      -1.90058557e+03 2.51884814e+03</_>
    <_>
      1.02300166e+04 6.08640967e+03 -9.12789648e+03 3.75826172e+03
      3.68817700e+03 1.24196436e+04 -7.37660828e+02 -1.23663538e+03
      -4.03739575e+03 3.46362988e+03 -2.80268066e+03 1.57062188e+04
      -4.77997021e+03 1.14583896e+04 -1.51282544e+03 1.30984883e+04
      -1.38849502e+04 1.62803235e+03 -2.04585587e+02 -1.67170398e+03
      2.56248047e+04 -7.38180237e+02 1.18938926e+04 1.77138398e+04
      2.72898047e+04 5.08915381e+03 -1.46994062e+04 -4.74227246e+03
      2.04091855e+04 8.61938574e+03 1.69038672e+04 -1.91002454e+03
      8.20656250e+03 -2.76377295e+03 1.43201748e+04 -2.19655449e+04
      1.53770869e+04 -3.51435449e+03 2.13953833e+03 1.70791562e+04
      -1.16233325e+03 6.59886475e+03 -1.37573184e+04 4.89184668e+03
      -8.87611523e+03 6.01958936e+03 2.90952734e+03 1.18604043e+04
      -1.67930059e+04 8.14121289e+03 -1.80758828e+04 -4.50924658e+03
      -2.05169277e+04 1.43452695e+04 8.42592871e+03 -1.99449860e+02
      1.82260071e+03 6.35129736e+03 8.91745996e+03 1.52222656e+04
      2.43651660e+03 -7.25375879e+03 -2.99432886e+03 8.46200781e+03
      3.46793188e+03 9.33573633e+03 -9.17807922e+02 4.14933838e+03
      -1.11420789e+03 8.35656934e+03 -1.21451084e+04 6.59496289e+03
      -2.22231885e+03 2.33224594e+02 1.83089551e+04 1.45709287e+04
      6.36635352e+03 -1.65911016e+04 -1.16119617e+03 1.51220273e+04
      1.20668242e+04 7.63948389e+03 2.31174805e+03 -2.12057471e+03
      -6.08593848e+03 1.59476343e+03 -1.15984941e+04 1.60125977e+04
      -2.77576758e+03 8.65889465e+02 4.48265391e+04 2.08258569e+03
      -9.56836719e+03 -1.10563789e+04 1.64596484e+04 -7.46704163e+02
      3.06364648e+04 -7.13615186e+03 2.07794902e+04 2.23031177e+03
      3.31034922e+04 -3.66127617e+04 7.83387842e+03 -5.47791064e+03
      -3.65134003e+02 2.69223462e+03 -6.28876709e+03 6.60280151e+02
      4.88360303e+03 5.50151855e+03 -8.23248413e+02 2.10794165e+03
      -3.78153662e+03 -2.35018848e+03 -2.97163086e+03 -9.13640320e+02
      5.98412500e+03 -9.14776184e+02 6.16617737e+02 1.56267998e+04
      -1.94399628e+02 -1.32138975e+04 -1.24433662e+04 -3.05100439e+03
      -3.55613696e+03 5.34411230e+03 5.93620898e+03 2.66438037e+03
      6.91833545e+03 -1.50110264e+04 2.36483545e+03 -1.06970581e+03
      3.30897437e+03 -1.88597314e+03 2.74667017e+03 -8.85188086e+03
      2.86324731e+03 -7.27048682e+03 -1.46767664e+03 -1.02415439e+04
      9.54269434e+03 6.50914246e+02 1.05414880e+03 5.92940369e+02
      1.81457031e+04 9.67169336e+03 1.00741182e+04 -3.41644470e+02
      3.56438379e+03 -3.92822876e+03 6.14645605e+03 -1.34738145e+04
      1.49034209e+04 -1.99250415e+03 2.62350806e+03 1.21522549e+04
      -4.82712402e+03 5.03282471e+03 -9.77682031e+03 -5.49231152e+03
      -9.96181641e+03 2.00023926e+03 1.25168398e+04 -1.05755920e+03
      1.67095898e+03 2.92974727e+04 -8.90592188e+03 2.23550078e+04
      2.26667023e+02 2.83959160e+04 -2.92067031e+04 3.49452637e+03
      -1.98042371e+03 -1.51264062e+03 4.18810645e+03 -9.35870508e+03
      -1.74257642e+03 -1.01661162e+04 7.59859131e+03 2.77520410e+03
      -2.07286011e+02 4.60471039e+02 2.16958477e+04 3.55375342e+03
      2.49699219e+04 -2.06084707e+04 -3.93022559e+03 -3.20181335e+02
      -9.21445679e+02 4.33033643e+03 4.97178857e+03 -6.75289246e+02
      -6.36180518e+03 -2.51087616e+02 -1.77235622e+01 3.28801914e+04
      -2.94180312e+04 -2.92387891e+03 -2.49683862e+03 -1.36740076e+03
      3.20762930e+04 -6.32092969e+03 3.60127197e+03 9.18572266e+02
      1.58101719e+04 -1.56825378e+03 1.82492981e+03 1.17236316e+03
      -1.32187443e+01 1.15386035e+03</_>
    <_>
      1.62237732e+03 -2.75884082e+03 -2.14196216e+03 -1.10388025e+03
      -2.03288306e+03 -1.67131042e+03 -1.02980054e+03 2.14765479e+03
      -1.50045792e+02 -2.42814600e+03 -2.11490503e+03 1.13430151e+03
      -9.26519897e+02 1.54610193e+03 -4.75326443e+00 7.80616760e+02
      2.83107666e+02 -2.05743115e+03 6.00275452e+02 -7.24642944e+02
      1.75112012e+04 1.91242163e+03 8.10179395e+03 9.42891602e+03
      2.02839414e+04 3.44547144e+03 -8.32013184e+03 -3.28552637e+03
      1.27616328e+04 5.31244775e+03 5.30105371e+03 3.92709747e+02
      2.28458716e+03 2.37577637e+03 9.07172363e+03 -1.22360645e+04
      7.63415479e+03 -3.87885864e+03 2.76740430e+03 7.13953857e+03
      4.16645752e+02 5.10045166e+03 -4.42081787e+03 2.59970142e+03
      -5.55020459e+03 2.34052148e+03 3.41698779e+03 6.14619629e+03
      -4.75493701e+03 3.08946338e+03 -6.66081787e+03 -3.21259937e+03
      -7.94562500e+03 4.17551758e+03 5.86882324e+03 -1.15990219e+02
      8.48570557e+02 3.98560864e+03 4.29195166e+03 1.03669297e+04
      1.52090796e+03 -3.71482007e+03 -1.83424377e+03 5.54626367e+03
      2.06143750e+03 2.93596509e+03 5.95209007e+01 1.38743152e+03
      1.39020422e+03 5.02005273e+03 -6.34813184e+03 3.11198999e+03
      -1.98883179e+03 1.10636816e+03 8.08600244e+03 7.31356006e+03
      3.28184546e+03 -7.61579248e+03 -2.84388123e+02 7.92805176e+03
      6.18152686e+03 2.74827667e+02 2.01294995e+03 -2.88161499e+03
      -1.10196057e+03 -2.76307495e+02 -3.70284082e+03 7.39065918e+03
      -2.08973828e+03 1.63553040e+03 3.14837441e+04 2.00559729e+03
      -5.44081201e+03 -6.80236182e+03 1.21481475e+04 5.77551697e+02
      1.13273662e+04 -2.20571875e+03 8.86706348e+03 6.57150391e+03
      1.97961035e+04 -2.02201191e+04 3.52105615e+03 -5.34217871e+03
      2.38659521e+03 1.43600977e+03 -3.24298779e+03 1.90110336e+02
      3.11155322e+03 2.87092163e+03 -5.72200134e+02 1.07676306e+03
      -1.80723218e+03 -7.01480042e+02 -1.03629419e+03 -7.74927856e+02
      3.14608643e+03 -6.94272156e+02 6.51205200e+02 7.43559668e+03
      -1.86273788e+02 -7.32147656e+03 -6.43205957e+03 7.21689392e+02
      -2.28917358e+03 3.63365552e+03 1.47964111e+03 1.63659937e+03
      2.46340649e+03 -7.18537939e+03 1.67281348e+03 -1.46359399e+03
      1.78189380e+03 -1.41831860e+03 1.25389148e+03 -3.11771777e+03
      1.04873730e+03 -3.02392188e+03 -1.91712256e+03 -5.37060449e+03
      4.62786865e+03 6.39447937e+02 1.00961346e+03 -2.33789307e+02
      1.02091270e+04 5.60697949e+03 2.27803003e+03 1.05424475e+03
      -1.76108261e+02 5.03876251e+02 3.69310352e+03 -6.99745459e+03
      7.24776074e+03 -2.48540723e+03 2.30692725e+03 6.39507861e+03
      -2.66241699e+03 2.60291138e+03 -4.87420410e+03 -2.34345483e+03
      -4.62246777e+03 6.74938049e+02 6.49961426e+03 -7.07704773e+02
      1.15535291e+03 6.26201465e+03 -2.27080078e+03 6.03669189e+03
      3.03338452e+03 9.64380664e+03 -8.18196436e+03 -1.19797827e+03
      -1.53755286e+03 3.13049042e+02 1.43077441e+03 -3.07975537e+03
      -1.40766968e+03 -3.63511572e+03 2.00674817e+03 2.26922607e+03
      1.61130619e+01 2.00224777e+02 7.31462500e+03 3.67540894e+03
      9.94219922e+03 -6.88689014e+03 -3.88809277e+03 -7.19809021e+02
      -7.19374161e+01 2.60306396e+03 5.99941406e+03 -4.42453955e+03
      -1.94791309e+03 -8.65980774e+02 1.80025467e+02 1.65783926e+04
      -1.37417295e+04 -2.78958130e+03 -2.69236157e+03 6.51279663e+02
      1.34620615e+04 -1.24348523e+03 3.15308398e+03 -1.22922302e+03
      7.44838232e+03 -1.36954883e+03 1.62519421e+03 1.18526758e+03
      -5.76860535e+02 6.77124512e+02</_>
    <_>
      1.28514375e+04 -1.78686836e+04 -1.13057100e+04 -7.43944824e+03
      -9.69081152e+03 -1.53621631e+04 -5.49674121e+03 1.05248203e+04
      5.37051147e+02 -1.40552324e+04 -1.02151924e+04 7.41126953e+03
      -5.11260742e+03 7.86107227e+03 -4.07578784e+03 4.54004364e+02
      3.52404297e+03 -9.19548926e+03 4.87976367e+03 -5.09857715e+03
      7.72170547e+04 1.29992549e+04 3.40233711e+04 3.97240664e+04
      8.29453828e+04 1.58320244e+04 -3.63066953e+04 -1.18104229e+04
      5.88391680e+04 2.60798242e+04 1.58212256e+04 2.95959839e+03
      6.12987939e+03 1.10215479e+04 3.36924336e+04 -4.71612109e+04
      3.50897578e+04 -1.63704492e+04 1.50488457e+04 3.35600586e+04
      4.50681738e+03 2.59348145e+04 -1.33986914e+04 1.29621992e+04
      -2.78965605e+04 9.45690332e+03 1.77507363e+04 2.95373965e+04
      -2.11264902e+04 1.49835723e+04 -3.10262969e+04 -1.34310488e+04
      -3.37205547e+04 1.54845225e+04 2.79598164e+04 -2.07740698e+03
      4.02171875e+03 1.70823242e+04 1.86241367e+04 4.32581836e+04
      7.24832764e+03 -1.66909551e+04 -7.10179590e+03 2.31941348e+04
      1.00199541e+04 8.94147070e+03 1.65262439e+03 2.53692505e+03
      6.39845312e+03 1.87736348e+04 -2.47735293e+04 1.34933652e+04
      -9.15897363e+03 5.23014258e+03 3.72247656e+04 2.85101309e+04
      1.56378965e+04 -3.58135078e+04 2.02504562e+02 3.40509023e+04
      2.98457539e+04 -2.05439844e+03 1.06771562e+04 -1.71282520e+04
      -6.68039160e+03 -6.14706494e+03 -1.32904521e+04 3.40461680e+04
      -9.08417480e+03 6.83577588e+03 1.30783656e+05 9.38155176e+03
      -2.21605312e+04 -2.72463164e+04 4.86066836e+04 3.10651367e+03
      3.80182031e+04 -6.58660986e+03 3.01844395e+04 3.11010801e+04
      7.85810156e+04 -7.90325938e+04 1.25940908e+04 -2.43575781e+04
      1.18382441e+04 6.96895068e+03 -1.55744668e+04 9.92836975e+02
      14095. 1.37965371e+04 -3.62525244e+03 5.57431445e+03
      -9.61560645e+03 -3.18806836e+03 -5.54711182e+03 -3.13828662e+03
      1.46915137e+04 -3.55229395e+03 2.97894141e+03 3.55058438e+04
      -1.80987769e+03 -3.21970449e+04 -3.12124785e+04 5.96474365e+03
      -1.20239062e+04 2.01399727e+04 7.97225098e+03 1.11561582e+04
      8.91709863e+03 -3.34986172e+04 7.59936816e+03 -6.13363037e+03
      7.17708887e+03 -4.11745020e+03 5.94471924e+03 -1.12197803e+04
      4.07944702e+03 -1.15053906e+04 -8.74319238e+03 -2.15793730e+04
      1.78051133e+04 4.14716357e+03 4.36019775e+03 -9.53507019e+02
      5.02485195e+04 2.73392949e+04 6.17824316e+03 4.51387500e+03
      -1.36763660e+03 1.95786609e+03 1.23764199e+04 -2.66551680e+04
      3.49274922e+04 -9.68882520e+03 1.32582373e+04 3.12678906e+04
      -1.27996221e+04 1.27091260e+04 -2.33654395e+04 -1.13591416e+04
      -2.21364980e+04 2.88317700e+03 3.13658301e+04 -3.16459668e+03
      5.34929541e+03 2.55914062e+04 -1.06803086e+04 2.56914395e+04
      1.04587266e+04 3.65680273e+04 -2.95505742e+04 -6.41117090e+03
      -4.32319092e+03 8.76371216e+02 7.60037256e+03 -1.55054277e+04
      -5.83645068e+03 -1.58002441e+04 7.54335254e+03 1.03551748e+04
      -9.09610352e+02 3.13710419e+02 3.44956289e+04 1.52344219e+04
      4.11226016e+04 -2.55719922e+04 -1.82240059e+04 -7.57094299e+02
      7.57322205e+02 1.45166797e+04 2.72954297e+04 -1.86262031e+04
      -1.03911865e+04 -4.99028516e+03 2.03650378e+03 6.79864219e+04
      -5.31472148e+04 -1.53194717e+04 -1.10309961e+04 3.81026367e+03
      5.12479180e+04 -3.87667578e+03 1.29138789e+04 -5.58915723e+03
      3.58429727e+04 -5.18405908e+03 8.06911816e+03 6.21187842e+03
      -2.72877881e+03 4.75541748e+03</_>
    <_>
      1.25939336e+04 -1.50627949e+04 -1.68922031e+04 -5.41687695e+03
      -1.21888496e+04 -4.69823682e+03 -6.95254980e+03 1.36478418e+04
      -2.79473364e+03 -1.46230938e+04 -1.47640830e+04 1.20109326e+04
      -7.29223291e+03 1.36526709e+04 6.06767761e+02 1.04062949e+04
      -3.38671826e+03 -1.34538320e+04 3.29983960e+03 -5.15013330e+03
      4.75365352e+04 2.34194336e+04 1.81587520e+04 3.17377285e+04
      3.14600586e+04 1.41865820e+04 -3.13989297e+04 5.01563072e+01
      4.29307656e+04 2.89345566e+04 -3.06014526e+03 7.82263721e+03
      -1.03520439e+04 -1.72863733e+03 -1.18521509e+03 -1.43028965e+04
      3.36146289e+04 -7.50957080e+03 1.15194775e+04 4.95869023e+04
      7.78530615e+03 3.91894648e+04 -1.74504258e+04 1.98253652e+04
      -4.25215938e+04 1.40711631e+04 3.08877871e+04 4.53405391e+04
      -3.01402148e+04 2.13882441e+04 -4.40811953e+04 -1.98199941e+04
      -4.83923203e+04 2.07064766e+04 4.34858398e+04 -2.54100903e+03
      7.23501318e+03 9.02409082e+03 1.32229326e+04 1.87129824e+04
      5.68681055e+03 -1.27861328e+04 -1.88967944e+03 1.35914443e+04
      9.81958203e+03 5.99902771e+02 3.51047998e+03 -4.28660449e+03
      8.31777893e+02 3.34428491e+03 -9.45622363e+03 1.08046904e+04
      -4.70694629e+03 2.83262744e+03 3.99276133e+04 3.58213208e+03
      1.84769492e+04 -4.11622812e+04 7.90604395e+03 3.34268555e+04
      3.97263672e+04 -1.63074766e+04 1.66880684e+04 -3.19138887e+04
      -1.52618350e+04 -2.96092930e+04 4.23946387e+03 4.07279180e+04
      -5.10730029e+03 6.60370166e+03 6.69025156e+04 -3.13926361e+02
      -1.33112762e+02 -1.66809746e+04 1.21681250e+04 -9.82850684e+03
      2.30910156e+04 -6.80188965e+03 2.22983340e+04 2.04871465e+04
      4.82211289e+04 -4.17127031e+04 -6.67907422e+03 -1.16999678e+04
      2.64908203e+03 8.87632812e+03 -1.94140879e+04 4.38643652e+03
      1.54970967e+04 1.93246836e+04 -9.77881152e+03 8.52183984e+03
      -1.66333867e+04 -7.24319531e+03 -1.59909004e+04 3.95873438e+03
      1.92444551e+04 -2.25162134e+03 3.33764478e+03 4.29281602e+04
      -9.27063672e+03 -3.40986797e+04 -4.22503750e+04 1.95722637e+04
      -1.82391191e+04 3.53926016e+04 1.65192695e+04 3.40254219e+04
      -7.28222461e+03 -4.25462773e+04 4.82725684e+03 -6.88647314e+03
      6.37544775e+03 5.67903955e+03 1.20311338e+04 -1.06983965e+04
      5.64187207e+03 -1.32029795e+04 -8.31775977e+03 -1.96161055e+04
      1.23730645e+04 1.13995371e+04 1.91389661e+03 1.54872571e+03
      4.47688438e+04 3.50175977e+04 -1.01549180e+04 1.01028906e+04
      -1.72595039e+04 -8.78867480e+03 -1.66902207e+04 -2.20900195e+03
      3.97979570e+04 -3.92773682e+03 1.24080635e+04 4.40991328e+04
      -2.39453242e+04 1.88226289e+04 -3.77199414e+04 -1.86115293e+04
      -4.09554961e+04 1.40088135e+04 4.41664141e+04 -2.75796313e+03
      7.97678467e+03 2.49654121e+04 -1.36089414e+04 2.98650215e+04
      1.14763242e+04 3.57401875e+04 -2.19780039e+04 -2.01314316e+04
      -3.60004028e+02 -3.29198218e+03 1.00057217e+04 -2.05460078e+04
      -8.17142627e+03 -2.08775137e+04 8.86922070e+03 1.69436543e+04
      -1.69463037e+03 1.85283521e+03 4.34343633e+04 1.85554238e+04
      4.72807266e+04 -2.30942637e+04 -3.34899414e+04 1.91428491e+03
      -3.07350391e+03 1.40037783e+04 2.66202012e+04 -1.39210361e+04
      -1.85866035e+04 -2.21278687e+03 -9.25065735e+02 6.34919375e+04
      -3.77692891e+04 -3.74547891e+04 -3.81026050e+03 -3.57097559e+03
      2.95590039e+04 1.07557031e+04 5.61499121e+03 2.30080811e+02
      4.64353516e+04 -2.56462939e+03 9.42612988e+03 3.19693970e+03
      -7.54760864e+02 4.29495410e+03</_>
    <_>
      1.12073291e+04 2.03899207e+03 -1.76471289e+04 2.70383301e+03
      -4.19019824e+03 1.72097969e+04 -4.28311279e+03 6.89168555e+03
      -6.84706250e+03 -2.63371460e+03 -1.13020557e+04 1.95655547e+04
      -8.17817725e+03 1.85802891e+04 3.66305591e+03 2.23776504e+04
      -1.75485000e+04 -7.42033398e+03 -3.70927704e+02 -2.70798462e+03
      4.77096953e+04 8.78368066e+03 2.05934707e+04 3.36757891e+04
      4.19228594e+04 1.16808135e+04 -2.99687090e+04 -4.89057666e+03
      4.06203828e+04 2.20757402e+04 1.84852227e+04 7.95914062e+02
      5.00720361e+03 -5.24952490e+03 1.46410449e+04 -3.01731816e+04
      3.21444219e+04 -6.71587598e+03 7.05030957e+03 4.85596797e+04
      1.32856018e+03 3.03272227e+04 -3.18729590e+04 1.66909863e+04
      -3.46072227e+04 1.60060889e+04 1.86244512e+04 3.98541289e+04
      -3.67270391e+04 2.20736816e+04 -4.73445781e+04 -1.93026934e+04
      -5.50749180e+04 3.12425137e+04 3.50193594e+04 -5.52401428e+02
      4.89107861e+03 1.10932119e+04 1.56570928e+04 2.53987578e+04
      5.08237744e+03 -1.34323955e+04 -4.32478516e+03 1.47417383e+04
      7.56446875e+03 1.16386064e+04 4.67018890e+01 3.34667603e+03
      -1.06127185e+03 1.14487344e+04 -1.82042109e+04 1.18087939e+04
      -4.64353760e+03 1.34619153e+03 4.08010352e+04 1.39154014e+04
      1.69348027e+04 -3.98948555e+04 3.95030396e+03 3.23758066e+04
      3.48769102e+04 -3.87973682e+03 1.27220977e+04 -2.25565293e+04
      -1.50932783e+04 -1.78335586e+04 -6.61331104e+03 3.88523203e+04
      -5.81923145e+03 4.40655029e+03 8.45966875e+04 -2.53717438e+02
      -5.74698877e+03 -2.22095469e+04 2.01626895e+04 -1.19286035e+04
      5.26357656e+04 -1.54781025e+04 4.14836211e+04 1.32600156e+04
      6.76558281e+04 -6.54087969e+04 8.55500610e+02 -1.13008145e+04
      -2.35109695e+02 7.74468164e+03 -1.73806445e+04 3.60629956e+03
      1.26938584e+04 1.66444688e+04 -6.98334863e+03 7.25922607e+03
      -1.41775137e+04 -7.26747119e+03 -1.36662793e+04 2.67841235e+03
      1.70140625e+04 -1.97630542e+03 2.18528345e+03 4.01227031e+04
      -6.33539697e+03 -3.06939238e+04 -3.70492422e+04 1.03259443e+04
      -1.49535723e+04 2.79418926e+04 1.63474580e+04 2.53890059e+04
      -2.15700775e+02 -3.91305000e+04 4.83323438e+03 -4.47119873e+03
      7.55624707e+03 1.46351416e+03 1.08762578e+04 -1.70651797e+04
      7.16730859e+03 -1.69512480e+04 -6.59830029e+03 -2.38246406e+04
      1.83831484e+04 7.87900439e+03 2.14908472e+03 1.53872412e+03
      3.99469102e+04 2.76801914e+04 5.16529395e+03 4.76994775e+03
      -5.58289893e+03 -9.80030176e+03 -3.78985254e+03 -1.35833135e+04
      3.55374570e+04 -3.54982324e+03 8.46491699e+03 3.86708516e+04
      -2.12694727e+04 1.72176641e+04 -3.44477305e+04 -1.79671387e+04
      -3.81215312e+04 1.38394580e+04 3.80876289e+04 -1.84144739e+03
      5.35737354e+03 4.46762773e+04 -1.80140977e+04 4.25599961e+04
